function [y1] = myNeuralNetworkFunction_36771(x1)
%MYNEURALNETWORKFUNCTION_36771 neural network simulation function.
%
% Generated by Neural Network Toolbox function genFunction, 07-Nov-2017 17:12:38.
% 
% [y1] = myNeuralNetworkFunction_36771(x1) takes these arguments:
%   x = 3xQ matrix, input #1
% and returns:
%   y = 121xQ matrix, output #1
% where Q is the number of samples.

%#ok<*RPMT0>

% ===== NEURAL NETWORK CONSTANTS =====

% Input 1
x1_step1.xoffset = [0.912896795548562;5.01937214505008e-07;1];
x1_step1.gain = [0.0512357475511686;81709.5257700194;0.00128287363694676];
x1_step1.ymin = -1;

% Layer 1
b1 = [-2.3013382764486696175;-0.35528457107776750812;-12.644427453733495526;4.2761323777811846014;4.7927227407601256104];
IW1_1 = [-0.051365196137831282963 -1.7884269928710392339 0.52168400025566785683;0.084793060722191004874 -0.0037681846732225592403 -0.027924803711091072955;0.0089108323653201218506 -12.078305384252725929 0.62235514394805813154;3.6943827976692453774 0.34799631187161411683 -0.084176525963681497755;3.0552234099747961338 0.12821662126688646022 1.4158213363840312926];

% Layer 2
b2 = [-0.5307538655034402808;-0.51459571222961664194;-0.48902045254386994344;-0.50194802520201242668;-0.52055981000966522476;-0.48927748563322848163;-0.48157457157224775601;-0.50203901740707934653;-0.51977122380369999988;-0.51361418766235145128;-0.50296859077194877585;-0.47223776647015230923;-0.45888641043295602673;-0.46470179833810276726;-0.55268396675732567314;-0.51137193965839589094;-0.54664881345724380957;-0.52660224338956285184;-0.50265716246430758307;-0.57001332057026776745;-0.49948379973874806881;-0.5434790617548751479;-0.61215704176628615851;-0.58341493271029942758;-0.69409210465556958614;-0.76130390973841488567;-0.70249043397054877769;-0.66840991153510675993;-0.58286485879492200279;-0.35779689339891718181;-0.38992474891025075134;-0.38823149221230673911;-0.40363309832135640942;-0.38781772418421778248;-0.4584667501683775126;-0.56556399774568522076;-0.52513785679387658956;-0.49022502898776820768;-0.55241893650329954024;-0.5510824233682276585;-0.43629953017863087883;-0.45023141865216564916;-0.51742272893639695841;-0.48629062943264628194;-0.46216984148575096514;-0.42163150651954756087;-0.37025484072017073034;-0.57099745177863570067;-0.60121753093004204338;-0.55428818370420052108;-0.60644983966623677851;-0.50175228298061036458;-0.50827432400218608421;-0.42636767166658573469;-0.4031573771633453207;-0.55746552369873880739;-0.49588814274507420077;-0.41842458046226244095;-0.36855784456820439576;-0.40424360415348231657;-0.41640558104115305005;-0.33773119918762239955;-0.4078254855141552615;-0.39069991540905968375;-0.48208878041201375098;-0.50942395689192265795;-0.45575022186914943001;-0.42349914414180955813;-0.4228243645840726872;-0.43815899028549409877;-0.39866357020499976205;-0.35809098767846458955;-0.41101002779057393965;-0.37355070169883514142;-0.35665697647994049069;-0.3476499079809889925;-0.45460991192839572683;-0.5852525406935819019;-0.62513438164992718438;-0.69568474319209883117;-0.5123858717514302441;-0.51669186787248555515;-0.45216017947713732505;-0.4423001758775895742;-0.4507080500373495946;-0.46085527243120677499;-0.48266733761883778842;-0.42002847037246732187;-0.48019009567780562842;-0.43524719935467864884;-0.48609059877428067997;-0.37006288238446605199;-0.45996721530260659128;-0.51606096921012756251;-0.53595179023717742783;-0.53729580665289711217;-0.54954487657339301521;-0.53755399401554448957;-0.53677846093756997892;-0.47030095132403054725;-0.46585558222395917483;-0.46613234909637701886;-0.45850319103891012951;-0.51129761448439825511;-0.45239286442987747261;-0.5217235752076496702;-0.54443652505229211958;-0.51017061247886164033;-0.31905696491850360497;-0.35157299444739886773;-0.31042437849443349496;-0.59958442956056101636;-0.54777074441938133909;-0.51031360797275793217;-0.43960353332876000998;-0.32824190956742715919;-0.40064836991424956913;-0.46408754144891489757;-0.57984483362035565968;-0.4747134676842496015;-0.34090607187012150758];
LW2_1 = [-0.3706176227270525092 -0.18128961189128198206 -1.246838293226022909 -0.086185902888382112663 -0.086600596971282695069;-0.37835973529105981772 -0.12450706046419926509 -1.2235133942174938326 -0.13764562647795158812 -0.017005969483527557523;-0.376061210278171687 -0.091470091982359461036 -1.2213787246765799299 -0.19524823228088589167 0.037896022011857835587;-0.38286170326385471352 0.023270091311642888271 -1.2133884277673876451 -0.16112675682789548426 0.060394665098686413363;-0.38042352392631068048 -0.030697651713053490663 -1.2475154943049382439 -0.1079556480342215713 -0.023500951173761996937;-0.40031618829086662581 0.087689728749760789683 -1.237501099945697236 -0.066597037413846330023 -0.065492372663058726068;-0.43123968659651207291 0.15861810943437493204 -1.2528405269505145103 -0.12200565310535906038 -0.038889308390505770985;-0.39088007361575777265 0.16421034311400931061 -1.2345515049904187688 0.015935550865871811466 -0.09884991873283550945;-0.35043751918623572417 -0.13168056855715212783 -1.1742669160228085268 -0.28696843547264483387 0.12771856542401741064;-0.36516593272583619534 -0.03886537166817212452 -1.1673790143847915246 -0.32294410906073672818 0.17433398577179071154;-0.37617480810201969765 0.046439350437485406309 -1.2079438615019209013 -0.22831125333804369593 0.10138075808434209024;-0.42717812879869315745 0.33992650358318354797 -1.227261090289838652 -0.0087556806084425117115 -0.075267647980185412027;-0.44379695546148373309 0.46182773930849996269 -1.2118474937783203504 0.1862407208925382085 -0.25103308831555692926;-0.45700884710660549803 0.7030073093463301559 -1.1907599430480813041 0.55104783375599197814 -0.53482398654466756227;-0.4596427268489586826 0.72845364221881980793 -1.2409751396701109716 0.65665232349875313211 -0.5988736587179691595;-0.46537512519982421333 0.86192046648509390572 -1.18588985992597018 0.71297084544972844089 -0.60723616582823081167;-0.43253203781260657346 0.71884465955952814298 -1.2352811352353958441 0.94311055137069721432 -0.86800627834205645872;-0.44625629812555750453 0.65250987022549755689 -1.2394960513428239235 0.73809092956360256021 -0.71674173277272890115;-0.46657707109749935181 0.77749726465972757161 -1.2086927080144636015 0.74059717268713365357 -0.69296576951923005705;-0.46837269636051181987 0.83895936599858766947 -1.2260771857413856889 0.81760988046036708887 -0.70415437790155765985;-0.46006565435476926007 0.89951419402874754905 -1.1683816525570298595 0.87514716575882001148 -0.74940157263568074608;-0.43213280296268735681 0.66633413356857540411 -1.2116737622506357219 0.79208229188629897255 -0.70981348220309670172;-0.45792118778878271312 0.80649845690390953301 -1.2272495658264601648 0.78117628282712758825 -0.626709297816364308;-0.44902505378674190117 0.91231504114561623453 -1.1585273178310451225 0.89123208435291767504 -0.65788863051629853373;-0.40574507845000734596 0.82483540904727548071 -1.1705537666405756436 1.100097059233134722 -0.75690919943588486074;-0.44094179024997531835 0.86434458581204420824 -1.2213872783366255259 0.94658178414046389992 -0.60642326940768886967;-0.41196085465243709178 0.92028401123744985046 -1.1388167721664737009 1.0590699471756528371 -0.6504977530581220746;-0.40094407216317989873 0.91085053191088394264 -1.1274328958634212139 1.0798859612068749669 -0.68717560739709870887;-0.40351908052175577968 0.97156495661215502846 -1.1033725427042273548 1.0497921189833343547 -0.70116193499537704525;-0.36463278758521266987 0.99612946298706273041 -0.99282822579509344418 1.1827259380850203563 -0.90223332983642701155;-0.33731507376113623042 0.91550705426986189739 -0.97611293456623937637 1.2688705947753340375 -0.93975750963391557757;-0.3183426644909201908 0.94676652883158241014 -0.95214126680416610871 1.3056299632572061498 -0.92771628734688271756;-0.31737811063882853668 0.97467201510281609167 -0.94186427913939874124 1.3421972005411193507 -0.92811090644026628116;-0.30414850655476388663 0.9955043915632451057 -0.92099992080629289326 1.3712021508383360757 -0.93306073782894460855;-0.4034004377056634727 0.94851773816732098954 -1.0776748818750601089 1.0567595309340509502 -0.81278670016047793734;-0.45575748639531743489 0.76060039795335709911 -1.2085152402601508914 0.75472974949210058782 -0.64010454929190663265;-0.44193462639674380155 0.65296345669776878484 -1.2072544793956816456 0.75129430520539441929 -0.69571406717101347272;-0.47727770643515593507 0.80219780541012741804 -1.1710600940530400127 0.59906657820678188564 -0.52721847988431302934;-0.4722138013957687952 0.8322693125732805175 -1.200047493531834597 0.73579824391969794739 -0.61881613859422213153;-0.47011613948890002002 0.76891081739493205571 -1.2113284322934725346 0.67032740266956503117 -0.58245388933795949615;-0.38776160021205713369 0.88857824249270811467 -1.0590905160301633536 1.1094393286247419272 -0.87379560807319567317;-0.370496473719316044 0.86768141834116840894 -1.0286769724046360697 1.1655374985840933899 -0.87576988031437230653;-0.37899729739751553126 0.85285212326865544874 -1.0362471946623907915 1.164767446627183789 -0.82841370648499368379;-0.36177734985975745774 0.88625550576742218034 -1.0150705431764965869 1.1868419416164537328 -0.83299962383249448461;-0.34198767325649859217 0.92771947826068013043 -0.97356048658996696687 1.2481028411223815677 -0.84544617100280505806;-0.32799741354517986114 0.94680237915323151032 -0.9417594697792227576 1.2800918666467959728 -0.86851843262542027801;-0.32683382430753737946 0.93736388472227860635 -0.92774981511112242227 1.2838083165494287297 -0.91051441597651094906;-0.37703996579426135582 0.92308414087184154084 -1.0330664883706628387 1.1467459234582568772 -0.72789931723410095099;-0.32947479317826910972 0.88861221253135913578 -0.98473614674632570232 1.2724965107029915234 -0.74245392568646162434;-0.32423048654471758878 0.96005518339130646588 -0.96932200210465202517 1.2521898889429270429 -0.72615181226859826236;-0.32656415057303500582 0.89224532171621828702 -0.96331517707238611958 1.28797664103711762 -0.72855560775394168083;-0.31351842603829460643 0.95628481724515090878 -0.93128421310403974864 1.312879166502181949 -0.79428334179158321948;-0.31518282423200361109 0.9453786937309126559 -0.93154817545999091255 1.3303288313782597463 -0.81107299897078211082;-0.30412407324851881141 0.99774967013851267872 -0.91069274019761614625 1.3332896154946587419 -0.84639632581912194187;-0.31544629408435825857 0.9640169456679983373 -0.9042305052323493797 1.3278185180414545652 -0.87881250464218874097;-0.32506209506049410507 0.88862077039249631749 -0.9437735890628414781 1.2921257551891465187 -0.76261413038869652059;-0.32623360648347649038 0.91505390253797380673 -0.94248662738615707202 1.2950141196568689672 -0.81732155441908860283;-0.31704282835443980959 0.95753629224829850397 -0.9102205098289202212 1.2990254186482430576 -0.84442369094614511127;-0.30009425420067453727 0.95674130006571522777 -0.89074930088937354089 1.3663131704975035596 -0.92818567515430427939;-0.30095502042244931529 0.96083774679868971802 -0.86244708395534952494 1.4064182146842867382 -0.90569727997581961354;-0.27119532588612521584 0.97155213253763506032 -0.87418214660664828042 1.4445451944100127228 -0.9134386764324311514;-0.27959368251752286794 1.036679462073756719 -0.8363588781345656642 1.4538933860812872645 -0.95001588872840136979;-0.25298173204466706254 1.0020056808199493403 -0.84592763862396391783 1.5094202676608825531 -0.93277898150184346271;-0.27847429282109659177 1.0045356855577824984 -0.81730229052174518944 1.4985141682038536359 -0.93274198675639585776;-0.25086050394982478684 1.0009426236597163129 -0.83282520644551705225 1.5546921112241218754 -0.89031459945470370343;-0.24481782977340077467 1.016687352796180166 -0.81385529186055027839 1.5833356021074220799 -0.86283686476460896841;-0.26144341460593273352 0.99773475536040701073 -0.81629420125646112716 1.54018358243604081 -0.89728091093474049433;-0.25497792329397028777 1.0250679740481620783 -0.80267631822216223281 1.554482711498783587 -0.91569976672905362136;-0.24821525263269456074 1.0343509424489722992 -0.79906722697852561321 1.5645780266559905503 -0.91403950881950157825;-0.26372229609835085018 1.005644465443084723 -0.81397318022157816308 1.5341797925948517101 -0.90770791395672711932;-0.24835051360364787665 1.0107129479560994501 -0.8676202113659068349 1.5046948732577298813 -0.95536220812602512531;-0.29856759762229539978 1.0275171327312220271 -0.83628042120590539987 1.4601576038242383149 -0.96054487539909727545;-0.30612430945881252686 0.97025306180602710615 -0.86186258561027062619 1.4235103774549087152 -0.92119011840774134292;-0.31053089751190643408 0.9717831701368343511 -0.91365059691101424555 1.3645269505094543838 -0.95391110026543790568;-0.31815076204889863876 0.98596795143196902522 -0.92845583903364836686 1.3043553917352008753 -0.92654288865243694673;-0.35213054156211076595 0.95567330804996608595 -0.96749438639103935156 1.2228014396230459937 -0.93218770630876701677;-0.4623203749006080665 0.82734176918956436886 -1.1668419214434269104 0.88173903624491900555 -0.82277088105857199007;-0.41297317815544387631 0.91686830193992019389 -1.1202893119120467258 1.0763422701778462276 -0.76983429842644923724;-0.34805165370189944385 0.87581979721163305541 -1.0419522950894717361 1.2705234926907693627 -0.80073347043397236078;-0.30256816749905335318 0.94389198247299532785 -0.97285922163309923594 1.375341186179476427 -0.70389345073209663717;-0.31839045225207485146 0.9768365786681145746 -0.97271565164249673696 1.3224274810376117628 -0.83809714290869541387;-0.31484213791119813886 0.95496215555737817837 -0.95727159290166319305 1.3545692858125923941 -0.85496167377669263221;-0.29997504225847138049 1.0026911997414083011 -0.92362270662717804726 1.3808011806272886268 -0.88325997992254023927;-0.29608394706785234884 0.99302316021919900813 -0.92277186241070574546 1.4192612731739722154 -0.93037429644674474183;-0.27295446181339055869 1.0102243472446417183 -0.89289975366730622852 1.4819754764535033598 -0.92838948441225799257;-0.25273512623514032827 1.0009176916094599807 -0.89040225572148379296 1.5007176278181988405 -0.9192395679148513965;-0.2796364816685671939 0.9924571935575293713 -0.85249568936875241842 1.5144182503377978666 -0.90153519670700543731;-0.2730916072065494582 1.0372725302144241155 -0.84604838333575382858 1.5239762747168350554 -0.94687188318899440098;-0.27042180811427418696 0.99761009465038785748 -0.84219027668907864292 1.5250718373612051071 -0.89444795890541728411;-0.27955694283326310012 1.018776966385762428 -0.88612822919092371077 1.4792619048000978932 -0.93682791161397904744;-0.30018406355980936651 0.9530975973269286694 -0.92895828161035387538 1.4283001358536622227 -0.91639773915065736443;-0.31856949598332412465 1.0035054821813842452 -0.94710577576056109717 1.3348922688434157191 -0.9514103592645341001;-0.28602439647292804414 0.97830408462878770681 -0.90282498303207581181 1.4555740187286922982 -0.91952457719050151308;-0.25684023034123587559 0.97759601157147413275 -0.86360525145128297364 1.5343413080025700701 -0.87965830907841524589;-0.23670475825149095428 1.022709308600578737 -0.80795372228873096887 1.6087508387768749696 -0.84719433590474702012;-0.22179574489658471226 1.0316008783786723146 -0.79261010990123759168 1.624787517786083324 -0.82889519303529679561;-0.23875511852089170706 1.0398280921309073221 -0.81466790457709081785 1.619308687047132933 -0.84625178160181668829;-0.23520703907037715519 1.0071920605198565468 -0.85207166777914611355 1.5812465933216013347 -0.86688050250308079647;-0.2772844111005909884 0.99471247446625532529 -0.83720682183342054472 1.5473425226132317967 -0.86067303774042824838;-0.26212549665952444844 1.025318222353707176 -0.9020468168254440755 1.5059497713391150064 -0.92523503824039154964;-0.28757341532004121465 0.99459124817655386597 -0.91161618580155623359 1.4537715052380684178 -0.91925644204057554987;-0.45375623693900457578 0.65696212941621334735 -1.2166163063670203393 0.49347624805811046711 -0.51017896098171811037;-0.44580944456082111094 0.51633755642058143387 -1.2246435456333977232 0.26448656296797917742 -0.32862793979439530734;-0.40573028506411418226 0.87806270340848657785 -1.1344091299209464463 1.1039248658243707713 -0.88860687559450401984;-0.42025435322218634981 0.97944510048826294302 -1.1121251118236612498 1.0323757114232994248 -0.83531712834899118914;-0.457468627721266341 0.92684672790179889468 -1.1960092059992102342 0.93525249198881033053 -0.80294517370358087227;-0.45431538642698671149 0.39756312232764084991 -1.2259745918915327945 0.34559276915440650946 -0.37674070242172236211;-0.49016946251943682711 0.51716198192999041083 -1.2134415283523158902 0.2587148735909295949 -0.30640117631847646473;-0.33224614294867121922 0.89018913156170920153 -0.96484845788261086597 1.2236996886520359329 -0.95854884759796166183;-0.36113062832156167525 0.88876970219482631652 -0.98965045147607610954 1.1978801304938180294 -0.95205062639624427057;-0.35978351264000008047 0.91555303961897160914 -0.99389073521156356961 1.1643088388072335704 -0.95403184202737267849;-0.34803213047762798782 0.91916135224065287357 -1.0369007977233717366 1.2561046828822388655 -0.79264129748833511702;-0.3568841723451072756 -0.078117214289938396998 -1.1908534033836539745 -0.30079515109042825882 0.15795024665287155097;-0.39409424667764181294 0.10293521596607967117 -1.2112142924631907892 -0.1894657864557948157 0.025233264241748192686;-0.4336840874640882082 0.48914205903681545751 -1.2323439724143994134 0.44967221048597422195 -0.54109490979502616881;-0.30182510588459476875 1.0209493117471393209 -0.89640506818168952385 1.3939198460729114171 -0.98270987642287799257;-0.45574571216220144398 0.66028094841910822677 -1.1912859131063582296 0.50934019692981180594 -0.56727097139878623899;-0.4718550684034606979 0.7785763374946687021 -1.222601815810663739 0.63053763666320017389 -0.637050828574303174;-0.22603961945921488552 1.0461166867965139282 -0.77363362531269241895 1.6682478487706948744 -0.81278325523301797606;-0.2403886387202282815 1.0346396696339765775 -0.84188956151582505782 1.5709352998258452327 -0.90602082977097875283;-0.30818030994286249591 0.97161516162503336336 -0.89268492925334463894 1.378382549879396457 -0.97798905913340317131];

% Output 1
y1_step1.ymin = -1;
y1_step1.gain = [0.00566991882381325;0.00566991882381325;0.00569987827089403;0.0057227804353077;0.0057227804353077;0.0057306413853612;0.00572957667785107;0.00574110814454926;0.00544334102165315;0.00542785410306504;0.00559991412378398;0.00574491640469242;0.00572481475313615;0.00569735413648339;0.00569130557866416;0.00568510372388184;0.00568153909123685;0.00569133985179805;0.0056873464059959;0.00568175215874204;0.00567837559151517;0.0056880299290958;0.00568317355631554;0.00567671688621585;0.00538238454486254;0.00567491528746251;0.00533761530576826;0.00524523909873705;0.00515363724676194;0.00469426929147538;0.00458815496623616;0.00447374461062709;0.00437028969223704;0.00429299873586594;0.00507676475427252;0.00568097700651299;0.00568472943231939;0.00568443437034378;0.00567907602968538;0.00568262010984437;0.00498187564889156;0.00481679401221408;0.00488586550778454;0.00474247808844469;0.00455065051575509;0.00437516411413433;0.00435548626050641;0.00483017791031237;0.00455975295122697;0.00449963736881686;0.00443647340845764;0.00433975185984103;0.00426648181356465;0.00420252508042293;0.00420642213008336;0.00436810612013085;0.004297611850224;0.00424187215068795;0.00407653467432182;0.00399075676040382;0.00393407943735749;0.00391160416805251;0.00384393312438516;0.0038667116138851;0.00379164841069958;0.00377068573765852;0.00379473954115301;0.00377316700561896;0.00376282058127815;0.00381090312199411;0.00391517319889024;0.00398256981552266;0.00407567372358685;0.00422948246664739;0.00436010824293379;0.00455795698841908;0.00546973210698361;0.00526959998096749;0.00483559531174661;0.0044571887045333;0.00451786168839708;0.0044228219393726;0.00431745857323034;0.00422567037366033;0.00403516720628675;0.00399839761482306;0.0039495385224341;0.00392698466617829;0.00393792953932666;0.00408854211587981;0.00426766717900466;0.00440541419731373;0.00411605845323038;0.00389463958746391;0.00371913188211562;0.00371317502045586;0.00371317502045586;0.00380365632384127;0.00389488736898712;0.00403588585850191;0.00417569616254376;0.00570809948345498;0.00572433202136212;0.00527830449609683;0.00526419234592208;0.00559477922053572;0.00568177692683674;0.005682234290271;0.00456302234224541;0.00466918798495588;0.0046728906157599;0.00483559531174661;0.00542785410306504;0.00548240712452812;0.00571767610226914;0.00421962553398841;0.00570849516336187;0.00569736244821366;0.00361602729500291;0.00383332847362711;0.00416269575201268];
y1_step1.xoffset = [10.9701566696167;10.9701566696167;10.3976011276245;8.23449516296387;8.23449516296387;5.72164297103882;5.44939184188843;3.11044859886169;10.8597850799561;9.78593444824219;7.24479341506958;0.506263375282288;-2.01506543159485;-7.22547435760498;-8.4132776260376;-9.70379829406738;-10.4581785202026;-8.21536064147949;-8.9698600769043;-10.0785531997681;-10.8970594406128;-8.55400562286377;-9.5573787689209;-10.8147020339966;-31.183988571167;-10.8168096542358;-34.3482437133789;-41.27685546875;-48.4331588745117;-88.642219543457;-98.960578918457;-110.62020111084;-121.694190979004;-130.341430664062;-54.7612800598145;-9.43297958374023;-8.58529853820801;-8.61466884613037;-9.84455490112305;-9.0299768447876;-62.5704574584961;-76.9882583618164;-70.7970275878906;-83.7712936401367;-102.066604614258;-120.269599914551;-122.664154052734;-75.6756362915039;-101.382431030273;-107.357521057129;-113.796432495117;-124.217475891113;-132.352737426758;-139.948455810547;-139.750564575195;-121.111312866211;-129.078567504883;-135.558410644531;-155.235244750977;-165.934234619141;-173.153564453125;-176.167984008789;-185.370452880859;-182.251754760742;-192.447875976562;-195.413208007812;-192.025650024414;-194.909896850586;-196.158905029297;-189.116714477539;-174.602035522461;-165.799758911133;-154.116989135742;-135.84326171875;-121.357192993164;-101.063926696777;-25.8681030273438;-40.0619697570801;-74.8316879272461;-111.009170532227;-104.56623840332;-114.340454101562;-125.708839416504;-136.012802124023;-158.963424682617;-163.667449951172;-170.032196044922;-172.95686340332;-171.695587158203;-152.719528198242;-131.820648193359;-117.97144317627;-150.419570922852;-178.227264404297;-202.771224975586;-203.901412963867;-203.901412963867;-190.355392456055;-177.740371704102;-159.451126098633;-142.62516784668;-7.5263204574585;-4.61352682113647;-39.863410949707;-40.9263954162598;-17.5259304046631;-6.52333831787109;-6.55005931854248;-101.317153930664;-90.894172668457;-90.567985534668;-74.8316879272461;9.78593444824219;3.84462666511536;-5.66581392288208;-138.277679443359;-7.44902515411377;-9.28373908996582;-218.448211669922;-185.554885864258;-143.561065673828];

% ===== SIMULATION ========

% Dimensions
Q = size(x1,2); % samples

% Input 1
xp1 = mapminmax_apply(x1,x1_step1);

% Layer 1
a1 = tansig_apply(repmat(b1,1,Q) + IW1_1*xp1);

% Layer 2
a2 = repmat(b2,1,Q) + LW2_1*a1;

% Output 1
y1 = mapminmax_reverse(a2,y1_step1);
end

% ===== MODULE FUNCTIONS ========

% Map Minimum and Maximum Input Processing Function
function y = mapminmax_apply(x,settings)
  y = bsxfun(@minus,x,settings.xoffset);
  y = bsxfun(@times,y,settings.gain);
  y = bsxfun(@plus,y,settings.ymin);
end

% Sigmoid Symmetric Transfer Function
function a = tansig_apply(n,~)
  a = 2 ./ (1 + exp(-2*n)) - 1;
end

% Map Minimum and Maximum Output Reverse-Processing Function
function x = mapminmax_reverse(y,settings)
  x = bsxfun(@minus,y,settings.ymin);
  x = bsxfun(@rdivide,x,settings.gain);
  x = bsxfun(@plus,x,settings.xoffset);
end
