function [y1] = myNeuralNetworkFunction_42396(x1)
%MYNEURALNETWORKFUNCTION_42396 neural network simulation function.
%
% Generated by Neural Network Toolbox function genFunction, 09-Nov-2017 11:21:25.
% 
% [y1] = myNeuralNetworkFunction_42396(x1) takes these arguments:
%   x = 3xQ matrix, input #1
% and returns:
%   y = 121xQ matrix, output #1
% where Q is the number of samples.

%#ok<*RPMT0>

% ===== NEURAL NETWORK CONSTANTS =====

% Input 1
x1_step1.xoffset = [-3.58786198815054;5.03910252042219e-06;1];
x1_step1.gain = [0.264768423113486;100366.554199104;0.00128287363694676];
x1_step1.ymin = -1;

% Layer 1
b1 = [-2.3601805209925248441;-1.9489423840319672898;1.225080477349298036;1.111807541765908125;2.6698108970349876401;-2.9947955465181701484];
IW1_1 = [-0.86577119100381350059 1.0598697633487639269 0.037569245379555971098;-2.1972858403360255863 -0.12272136822358593877 0.19961965048522481436;0.46754468689445199958 0.4752954258818005151 -0.56434165474343933599;1.2287215444449535173 0.36345194545799319741 -0.34119882090494557669;0.86653833238506472458 0.24164840516981467289 1.6532985342408874629;-3.2510614375522837172 -0.32164285874521342246 0.53406247984871402235];

% Layer 2
b2 = [0.22621663555515020283;-0.64023269737055310546;0.64473715175007717537;-0.54197563974803542042;-0.13388639972666355193;0.2571271366472384079;0.10295727868560936025;-0.45760935172639588542;0.95138554264027908047;-0.042812080961043982863;0.021627773391811752624;-0.8834790242128696125;-0.16643445573859433351;-1.3992573810383535093;-0.54850004163585097672;-0.30976078381247712512;-0.49697829203022608757;-0.41470072302448340862;-0.57503156122931020633;-0.19702315942357537248;0.55775741846346926778;-0.72710952422044905497;-0.74340323268094199438;-0.13006567349740305595;0.25200477141969251926;0.25695717399412321136;0.15757821623341472517;-0.016888113985945744921;-0.09799616477621145294;0.49010067552930219881;0.36193936080276334355;0.45407033786202932735;0.32221962892009392565;0.16521435680112422917;0.5611382689440094218;-0.60152982102589169777;-0.30904530157415022185;-0.10450523878453145399;0.14819730413793680279;-0.56655932272151920959;-0.28748654633323533769;-1.0429922126038995156;-0.30772538041152486255;-0.7028156430599155069;-0.96572813473212637536;-0.82420858914089012437;-0.31995030796056878053;0.45898780864598043294;0.24103675871785856799;-0.087206934951056677696;-0.090890582320722307363;-0.3343217000356201174;-0.061539776535812378;-0.21332108568960717054;0.48635847230973117128;0.050425955631456707839;0.38109165443511339166;0.026578553320044689956;0.28466684228930216882;-0.022756441646724811373;0.042648454035897696845;0.18760280854507518922;-0.25402358258662038892;-0.065921029171206582675;-0.39532206102322897667;-0.5657137056993043478;-0.20763819092067078986;-0.7778441865711596126;-0.19280451659236227946;-0.039831694456690415473;-0.63191053072757430442;-0.66616823070991271205;-0.46318444327827895668;-0.58576706136467604491;0.024639995086802344432;0.18588907210260099956;0.69217186142645514835;-0.59776973039687086864;-0.46008469706236099217;-0.82724253546903880885;-0.51288328261420079723;-0.5395512117972859345;-0.37484353290200667086;-0.17165777857608524593;-0.44303712925976007631;-0.12410123961463555287;-0.51189256756099199563;-1.0662788215181371321;-0.64134959862977025669;-0.52499735408669168102;-0.29662170780739111065;-0.23957888152557010875;-0.29260874805685987976;-1.1451535256974603172;-0.79402944096451744116;-1.255043431961617495;-1.5903511761532205249;-0.66777367012923061207;-0.56262467718120967586;-0.1570713734849485399;-0.3507992056053709784;-0.32039564607261089568;-0.49208731609314015909;0.89362847261516897834;-0.45745906539313269112;0.20810040010284319711;-0.052248779621210793278;0.68057574041138402254;-0.88985180386504336703;-0.31917445405738886777;0.037882359842496486635;-0.093242415011385276769;0.36155508092615734617;0.36536987287129696345;-0.94792069883158980304;-1.1727666385327537579;-0.51937520147413740457;-0.52127315360577775039;-1.3815586515437920934;-1.1631568587456722064;-0.89982636908407709342];
LW2_1 = [0.25180544193209830617 -0.5316520756308679152 0.21620638094320066003 -1.109843296156040493 0.1256613154771823726 0.72590011900524065158;0.57045569029515885706 0.40846957971060365855 0.47902692348722319959 -1.1768479766281068066 0.67705841122676901911 -0.65776779711952482188;0.45672207201677744726 0.32397760747941201087 0.57279506657601331199 -0.56364758252953228723 -0.32265619562508907059 0.31639937353013553034;-0.96646886981753776791 0.086861449379586744279 -0.032428586471213625975 -0.60146931831731775819 -0.17521558796786948498 0.42372711662967371682;0.033738601234802725881 -0.22596786471035010258 -0.32917422595873474522 -0.64932711680222121586 0.33695693989546077196 0.36724646662222959481;0.2429424808640790745 -0.28980292438826477097 -0.14913175603639741706 -0.56128168771763198297 0.1641101136853162501 0.65812168091170608619;0.17104364373850133862 -0.88631037921200905849 -0.30472931838115008274 -0.44688107147032146704 0.14417468301040442524 0.84830208165156828493;0.18288722332398649195 -0.4333714579521099064 0.18178735651339950063 -0.54414880421728828441 0.4531237212973255879 0.47850851707708164096;0.53112865694405941852 -0.50296822211593539276 -0.23605334729343915856 -0.32915640812030810824 -0.13695868475271300024 0.34573368155290912229;-0.49318521390862823939 -0.29654797947048328055 0.50785467426267194568 -0.26322648407100540657 0.063810687751837472104 0.98061937224269168922;-0.099326548841054088101 -0.32978713221425831614 -0.50830826128164419142 -0.058520814592459682868 0.0085332074072628962685 0.20970404455309019087;-0.6337592562928223705 0.32396740251642458519 -0.12467491106152281399 -0.54816898062607688491 0.02708829759541179355 -0.40194660762589184966;0.20519125712682007023 -0.26370114191301557982 -0.3528683334566391494 -0.82463597008159850166 0.22111954901227534598 -0.1740765032256423317;-0.31673466638313496624 -0.99634474163106989675 -1.3053782952293568886 -0.39110768963664521713 0.61162959307370790007 -0.35594736027357543051;0.21690788714010891813 -0.28317886455018453917 -1.5107015203993536812 -0.27564316951758316421 0.54032193563399644187 -0.78815781337885848501;0.13231158741702114812 -0.72982196951026578891 -1.3042135365730862517 -0.69145350887981293919 0.52319322625057362863 -0.20192190668698617451;0.1025719402660031504 -0.61394275518474639153 -1.3189647377707351961 -0.53587952712223063667 0.51523496132741941622 -0.3553081681513077239;0.33887076417812472817 -0.68870560279012538185 -1.2726840960965515315 -0.59781526147300811935 0.50650663962287989506 -0.47624898664395576287;0.27011074466318829579 -0.64237711788880746955 -0.90481920915452984655 -1.0429885188679528518 0.74650393342798837537 -0.45797325597453175661;0.36368578328940737165 -0.66774457724729674446 -0.97145055219457476792 -0.90884717464453901314 0.65302518430471290234 -0.17398712310378391943;1.0488973647173935877 -1.1724276586644100107 -1.1728755923062170741 -0.87403693452877639913 0.46180862828534130493 0.099045819643677923683;-0.0067208368318891235568 -0.53433462496170014422 -0.69026717063840969946 -1.1363784921679824791 0.81476519702761451835 -0.28303144343333663802;-0.03768027117372935858 -0.65885744625723763335 -0.45480424542203012894 -1.2772000304091450928 0.86526126671342051822 -0.029205659540075146197;0.48701045529117831245 -0.83499237311787244398 -0.059608381717934547095 -1.3726017608407974357 0.72046826786193174375 0.44038059132078744007;0.32168981273198493653 -0.021037429111234809409 0.095368737781283435817 -0.81210189678802069402 0.41036601106895148616 0.58763622839867757364;0.27323716820922355764 0.16040244649087623263 0.09097328810558451273 -0.64739040941680714436 0.37762560549491175355 0.58178281633459838496;0.29913129210884553677 0.3907927818972858347 0.25392910558521064601 -0.88252860569095881171 0.53917333654918531138 0.30947238501519247489;0.15111679015715426266 0.21343271442241137925 0.25796977573949614326 -0.94577530643329332793 0.56738296965217893675 0.42092213462491651077;0.14047264294967462539 -0.12946903453097122205 0.1785052282491997877 -0.9955463407625301242 0.54452169131618555209 0.54947550162709646315;0.52668100283097141201 -0.70628574774502295153 -0.25135623763498571304 -0.91638876987514283901 0.35800600319729009025 0.80149470315940296583;0.53029908013780568954 -0.73292485300546894589 -0.27992991206783124358 -1.0696146986185410821 0.42024969846554965924 0.59069727107558744894;0.44103274184566482186 -0.3728936914045704043 -0.07407131781452169772 -0.99586241980509737637 0.45505893678418446457 0.71226794386241487622;0.44668586217264882876 -0.35524127404981947764 0.033250530694690048905 -1.1922400596435995812 0.51226976438363347466 0.5267815315953848776;0.67392450077499843619 -0.98179363966640553762 0.16155270809526317555 -1.6492003040075264853 0.61598913269105082247 0.56397540606933804774;0.58484500701410335743 -0.71992330677798599403 -0.39767404840500958363 -1.0744942940095822959 0.46954654876455470536 0.63827929723838761067;-0.29355489422045194514 -0.86341116248810811928 -0.80373706214272722104 -0.90828358300824618698 0.58401550460662188247 0.32418986334859228871;0.062982933082013553561 -0.71413052322784664749 -0.7655586594727240568 -0.93886441018122746005 0.60347983304531638282 0.16364812360991476403;0.2706476215655175821 -0.25406857669565091618 -0.97648568081040454381 -0.64656372081194601886 0.62816763720848334263 -0.21402604699322672066;0.63123839136704029684 -0.73653813823767544378 -0.82147834407750874863 -0.94227687791754288771 0.55859107428191967504 0.0067630219861164438469;-0.34043087898861190688 -0.55438644182557439422 -0.83536035271013930892 -0.79963465802690014694 0.6101262473580475465 0.18749690232703450365;0.80264824862330652611 -1.4684277411082531373 -0.27271137958561064707 -1.6141473106966024442 0.67900546695211294601 0.1395676249335016661;0.3524351294468227036 -1.5694087841618034052 0.054900417294317424566 -1.9749152287927542737 0.96986578455499994345 0.16541938249048052101;0.81201881639511386268 -1.5260271745590643366 0.23340685894216653407 -2.0568464238196195737 0.92450503872810652073 0.46501514092839413284;0.59620476554951007397 -1.3934342932312733243 0.39053516016235417796 -2.1499722424281575428 1.0158330149086562955 0.29146772992207847786;0.40354514716238071292 -1.2063647342508505567 0.55315671965235546637 -2.2503841961236097369 1.069170559556148925 0.1433666318581844068;0.53991535543901192362 -1.4059574212672079074 0.59611960480327241818 -2.3465284508590502632 1.0926827059877552983 0.32077314583021976357;0.8040760153115479314 -1.4968759067280668074 0.25960374845011596756 -2.1648416020553287176 0.91975739640638409789 0.35638362978534554593;0.57389192411305356423 0.058908040069407308081 0.24131195055769205648 -1.1308271523798743008 0.50117982159493068561 0.38718532275481010174;0.54269521368179496346 0.55500463931378041238 0.45238807601893732402 -1.3821743689912080466 0.69359658022025683088 -0.14899902878214468793;0.37236946262126630058 0.8670062993694573894 0.50113750017485281241 -1.420953844660223897 0.8330785802150778574 -0.48022556010867012422;0.46118111261438343718 0.42698793425165776361 0.58409460838583926456 -1.5973304754795947247 0.87259919449359513166 -0.18663000040146740521;0.29356775038559829172 0.25998997744801566334 0.60714401613566715277 -1.6907604678777936602 0.95974616394085976445 -0.093366047589243078564;0.51820030842012798633 0.28025786674596819825 0.59744150159356668173 -1.7040197888838708451 0.88946418460954002061 -0.14354875135079928072;0.29799997359767305127 0.37619298640183096438 0.44740861140513515926 -1.5128194097283080843 0.90142078439277495416 -0.12927108028581252297;0.62108179264528562413 -0.010246948817615260732 0.22644865307167991175 -1.3655816572846486423 0.60695912818918928977 0.28957407849805172351;0.55024826625445433237 0.28052235160085925436 0.53825055310858738178 -1.6015514279857474556 0.83464126975151198273 -0.07079756519297214501;0.66878705831811502414 0.081632343444025312618 0.35785778978656773708 -1.4480900605608983955 0.68417171121113495857 0.17203516177304539747;0.31828925855675843648 0.32315760537763976723 0.27828178171689732512 -1.2770682161022783863 0.75468446079888684697 0.06543352765046274444;0.37722382953488786672 -0.051539208179093645712 0.050332528793234534992 -1.2016755267832652798 0.62449994023435972945 0.36134334683783703168;0.29122621957684818872 0.31445819523944329443 0.14126528557591680468 -1.3012649535535005807 0.78709780438300058769 -0.073655829254437227283;0.44254663452557069236 0.18664676255050430265 0.25177208903694042741 -1.537885053704272087 0.83028716375210964706 -0.10764378712029198937;0.5870980506525661502 -0.0058133632539263194183 0.29314085191160738075 -1.6524579139464012911 0.80889966271695801225 -0.0017939506326785381336;0.63533528216481305329 -0.81543568089731510717 0.6515707437445001915 -2.3430198284568990452 1.0874839734405254976 0.25116190777158708958;0.91764340526333765258 -1.4150270405089546699 0.69549700737809816431 -2.6641329651288305769 1.0732418133225889445 0.48636736565584270942;0.93979808674897724607 -0.91800814961353116583 1.0231188599552478724 -2.9388485090652229914 1.3383018095839569472 -0.059647340452221093987;0.85103302818236936655 -0.18832604396350854925 1.1178204759547059055 -2.9988873175309462837 1.4385834034150006833 -0.74928706506464193282;0.9833992302970555599 -1.1929775621453004852 0.94078950491259283329 -2.9078567309758871495 1.2290807814705970724 0.20638605595943093629;0.65983113040170227048 -1.1454640163866831593 1.0356193751359239474 -2.9894749950558781038 1.4273577054753805449 0.098779816773000170271;0.86829832552734975692 -0.71211637707584851675 0.86341478378100222635 -2.6514291367717275349 1.136325325727888913 -0.059302311226642423492;1.0377936958566666981 -1.1304693595144934548 0.88017134919856621078 -2.776501810505040968 1.1175863983255509559 0.22581669113321434228;0.84309053888549578826 -1.9102244842221707266 0.86555114835954660713 -2.9566632641787742308 1.2350455075242017244 0.52519856580359203235;0.541606058555309966 -1.5956259314261567184 0.66773509175231582358 -2.5297158354622855114 1.1480366345921415583 0.60016764384049026138;0.39781396749947528502 -1.0989390224066926116 0.49984791608661582885 -2.1018355633900558388 1.0089440071059616599 0.56717527153677183005;0.3867527779322019188 -1.2452801085230116307 0.26398183243147349542 -1.9206661927907653364 0.89552410335346344095 0.44630692450491044054;0.61282265137913605191 -1.0521707978064562816 0.11694652873218024103 -1.6194653041864219833 0.61911987617060826317 0.532559352116270035;0.74217676348710071021 -1.6031150211264169059 -0.058438867712965358869 -1.7833550552263013333 0.6590971075095974907 0.81992415137681051718;0.82055493820670477589 -1.2395279050769820728 -1.2832191854090322369 -0.54907930048109709897 0.2621197809227064357 0.52334945819817946244;0.10674818583240332226 -0.51066466512173636083 0.25385126323960982564 -1.5942528516908196501 0.88702905437962975554 0.27529087121023970708;0.34441774973981015284 0.10910063387646312671 0.56537519802882885145 -1.8951830019817839101 0.98697709084858431527 -0.32635377868971088278;-0.0041880855141549263448 2.9468653218371034797 0.38866230667694395828 -1.2541759586258727222 0.94040684381228301092 -2.7622093606872901717;0.49574899011712481034 -0.48563430082071318283 0.62768177767110366894 -2.1144478550103826819 1.0563666553603261455 -0.013651602336203754601;0.36637716464893871349 -0.92087635748574037109 0.61780763827458384796 -2.0625649723558527882 1.0420374140661288198 0.53051504830227169673;0.39788445984959935897 -0.76074133299409241182 0.59391106093934342702 -2.0421048472356062575 1.0075111190820309481 0.4694117575653474761;0.75887462462994037526 -1.4575720247263395102 0.54882173399991951435 -2.2879584104811354628 0.92627647352092046251 0.6660321752965802089;0.53488809369973733254 -0.95919659480899344128 0.70292172742807834673 -2.3855936666827468606 1.160341495456350458 0.38182023989982211143;0.73613253053412308624 -0.82945504825488103329 0.70910163534035963728 -2.356075902327185112 1.0251366411740001627 0.28839952851747169271;0.61408283280833952933 -1.1221418539710532603 0.84859851680578357591 -2.6479691850007291976 1.1805448635011217551 0.30582856533664837251;0.78656187407523503463 -1.8076923840522065579 1.0507162485174512678 -3.1989761967482417404 1.4164660439510203815 0.15802700881922407405;0.85155701426332319759 -1.3411935794904670249 1.0278547972748237616 -2.9931716301349671205 1.3521174232165802387 0.16549185362305665614;0.63037190768385020778 -1.3131290948338074642 0.76642138735339693234 -2.5658391648837346466 1.1680525157745837994 0.45355730425034712638;0.67372827037432780894 -1.3141326242740885011 0.46925176788072708867 -2.2082767857198000172 0.91115836769073654811 0.45928662156385274828;0.60673982097362078036 -1.5859236681485271436 0.16851247057684526354 -2.1287718391150485253 0.86364718337158474792 0.58873557271097465282;0.61477989111536690547 -1.0674785826831048041 0.53410370842447363326 -2.2127101903393300297 0.97344972806425100753 0.39000999997374519168;0.50035552709966191198 -0.73545414285742682914 1.0976302209770609775 -3.0115337667909969355 1.5239587233170479585 -0.39596716643179147299;0.71313316153485817317 0.24103725413951448964 1.2040568351952500858 -2.9555108834536967244 1.4755047547473754133 -1.1142298374255510396;0.56964292915333125666 2.0781798368730894921 0.87272748901740204719 -2.4676038946439140531 1.290414578313669125 -3.2730380237833864854;0.30456712169492788922 2.2310213164250369822 0.87292724958794687407 -2.4149298026304748532 1.3869629881026122042 -3.364668921465884921;1.0554805854406419385 -0.83677747307095629026 1.3037072144450945199 -3.4247244554960403207 1.5434592560727662391 -0.54057606050837803124;0.74211281486360947124 -0.56701742326017656737 1.0334246024942690401 -2.7724263364036931812 1.2892044765437655762 -0.26345400813797786865;0.90940047911870891539 -1.2076870294652346516 0.80276292032884699612 -2.6468314926834008993 1.1413944985711508284 0.37957092755639915138;0.72086406201139408001 -1.1394289110124233844 0.6613644812222597702 -2.3909230060266395412 1.0437303512290920793 0.32411126236680948276;0.13097128821661568887 -0.63311049893962090263 -1.2483267286170045551 -0.28785049941970608511 0.46257023057748197781 0.028220490525429346718;0.10129606283818677614 -0.13260174127686658041 -0.99186372415071766273 0.12395605717592977912 0.30931966944789685003 -0.19398285521901639794;0.63103130209221680591 -0.87725266361150200378 -0.6144168773494197433 -0.92143685855321688649 0.312201838798414677 0.8610790809992048267;-0.17827118151821819136 -1.0018822343921602869 -0.66469017372075311911 -1.038575512842802695 0.59199162694992335521 0.52019669259300638231;0.63241421287750043678 -1.1720464979581950438 -1.2269996959840012707 -0.67849878283408715518 0.42524427511133705559 0.24679230650451827733;-5.0959847404226593995e-05 0.32077175751828906902 -0.0896287642551229502 -0.33281704158787800418 0.33390992415763892653 0.47356116133169445792;0.82027253691711843331 -0.20389968273679925925 0.069421250456044497623 -0.59961311113638471326 0.2450717529790497895 0.74399877905918965215;0.11833305587397863201 -1.4247999095689840576 -0.33917433404962266108 -1.4766272134807942873 0.77415998957520704149 0.3080853669433671338;0.19036838440402492623 -1.0219496759343136283 -0.67101381832398676597 -1.03584720741393288 0.5136477032032916723 0.26797092558157092901;0.40732957297158595145 -1.1511441682050986834 -0.74859562745736185629 -0.96128389645894218862 0.37415864671532500507 0.40044010043105565666;0.63750571328620453393 -0.11406202713598530274 0.6069376217298481091 -1.982240953981355025 0.9429881456261453021 -0.10275047874229754907;0.038572849493001826193 0.30505679944832142514 -0.12052439108232973486 -0.060787951505810275399 -0.12682136663714962954 -0.24848230632492626646;0.26441070562833535185 0.055491753125276988001 0.35756247989699369016 0.12925269186210877614 -0.27719352224531257356 0.048588401936520621283;-0.1122065505896492621 -0.40646577833552965942 -1.3926242313100347658 0.19034577605814470558 0.42321476557281384467 -0.34746970471293753269;0.39458324480698148129 -1.7903474942167230122 0.4295090912178191056 -2.478518027351481301 1.1591649895969344808 0.25656470015529497797;0.18303894996270483886 -0.21558571516605315455 -1.7693710132983382355 0.30370519201760365346 0.50946524874177823161 -0.55317530619638777267;-0.17887390564863864251 -0.87422170480214100863 -1.7075679221101101035 0.05553012980709061408 0.2263007875245548195 0.046017050546544729928;0.74340083520564315123 2.0047434187259658422 1.1294673743268714983 -2.8111055209849009628 1.0239124728431929778 -3.8706126715982276387;0.93467007701476290116 -1.2613439158284895925 1.2850349835322794068 -3.5483810078421336165 1.5313754430386139482 -0.63175336684970273549;0.56041258366123303247 -2.0650698439351091729 0.40594667702469072745 -2.3922470350938302985 1.0246107261072825434 0.57821525201587375964];

% Output 1
y1_step1.ymin = -1;
y1_step1.gain = [0.0162606426993223;0.0162606426993223;0.0882857323757909;0.0341135936445109;0.0341135936445109;0.0362846542643161;0.0814522603946835;0.0551861657336486;0.0421282966568507;0.0387344859033683;0.0483993060914916;0.0344578654063242;0.02265119489408;0.0121747323773275;0.0101406666247337;0.00864127614940009;0.00798836362998089;0.0100936250878087;0.00892514547656193;0.00749132705087666;0.00717119653284203;0.00880325511963903;0.00744655768849468;0.0048836430280949;0.00243909020178804;0.00243685459988098;0.0022956240122636;0.00234705054542531;0.00245322060257605;0.00303452349262282;0.00300764646936789;0.0024363610529752;0.00239768303973643;0.00248289222999002;0.00420485138192881;0.00801898856750239;0.00922970235843569;0.00949460662127695;0.00772933140092186;0.00884035196568536;0.00446269846886359;0.00400685952144087;0.00383915028806515;0.00347328420867752;0.00305337493767898;0.00293511411971455;0.00312718394928557;0.00233910873375645;0.00215406855713661;0.0021547150930467;0.00216136594000455;0.00220344328359313;0.00215689978041657;0.00215768589504703;0.00224151273653011;0.00221289729189873;0.00223735871500995;0.0022243051702164;0.00229928231279116;0.00216030187528878;0.00216080089694866;0.00216090263847017;0.00227536886470044;0.00243392758983715;0.00228329163301968;0.00230374191791225;0.00230672956390576;0.00230865387646962;0.00216232809778675;0.00225381291282518;0.00247858581430182;0.0024731113855239;0.00243574358565718;0.00265323509583565;0.00265870504804258;0.00367415664226619;0.00740313469142003;0.00365212251339655;0.00288475793493307;0.00215641760124536;0.00255818548702838;0.00247543582454533;0.00239809882168;0.0024736460783013;0.00234029410372014;0.00222658771186278;0.00229101105020602;0.00248189401961096;0.00238881708756555;0.00242407581924449;0.0026145520150075;0.00332317338921852;0.00245967504335845;0.00247460692166466;0.00217265542611874;0.00216267289156718;0.00216267289156718;0.00244822851786503;0.00221231155973974;0.00237435528189346;0.0024799322862239;0.0140119262582185;0.0227827049456157;0.00472445795313703;0.00516853781942058;0.00640162103548291;0.00693949784151926;0.00697849128646274;0.00382616117855759;0.00414737404066345;0.00423958822895821;0.00288475793493307;0.0387344859033683;0.0337822965631606;0.0189124504127503;0.00306367785419883;0.0142283560393386;0.0104313160408145;0.00216382509441476;0.002503285045962;0.00291648283633652];
y1_step1.xoffset = [-0.238006591796875;-0.238006591796875;-0.73565673828125;-1.84991455078125;-1.84991455078125;-5.65560913085938;-3.20571899414062;-4.244140625;-23.7991027832031;-27.9383239746094;-14.9989624023438;-5.29885864257812;-6.49533081054688;-6.14114379882812;-5.96539306640625;-5.8167724609375;-5.74688720703125;-5.85861206054688;-5.69680786132812;-5.49411010742188;-5.50192260742188;-5.54513549804688;-5.37075805664062;-5.08642578125;-12.2540283203125;-13.0611267089844;-12.6343688964844;-11.4803161621094;-10.9548034667969;-10.0450744628906;-8.06707763671875;-11.2202758789062;-13.4259948730469;-10.6376647949219;-8.98336791992188;-5.52682495117188;-5.64208984375;-5.5885009765625;-5.42327880859375;-5.5301513671875;-3.93362426757812;-3.62283325195312;-3.44186401367188;-3.25823974609375;-2.93765258789062;-2.80300903320312;-3.010498046875;-12.9595031738281;-12.5534973144531;-12.4099731445312;-12.1963806152344;-12.2566223144531;-12.0892333984375;-12.2783508300781;-12.5421142578125;-12.4256896972656;-12.2456359863281;-12.3851928710938;-13.0226440429688;-12.7702331542969;-12.7171936035156;-12.7422485351562;-11.6891174316406;-7.9613037109375;-8.449951171875;-7.662353515625;-7.55935668945312;-7.92608642578125;-13.1448364257812;-10.6463928222656;-3.96670532226562;-5.972900390625;-8.93875122070312;-6.22076416015625;-5.96005249023438;-4.61492919921875;-3.18045043945312;-4.23513793945312;-4.47903442382812;-15.8303527832031;-4.07843017578125;-4.19699096679688;-7.00189208984375;-5.32907104492188;-8.37741088867188;-10.1351013183594;-10.0398864746094;-2.95352172851562;-6.90606689453125;-7.28396606445312;-7.64971923828125;-7.48489379882812;-10.4473571777344;-5.7728271484375;-9.21719360351562;-19.0357055664062;-19.0357055664062;-5.00338745117188;-9.9404296875;-7.46786499023438;-7.84310913085938;-5.04345703125;-5.28396606445312;-4.94012451171875;-3.30075073242188;-3.48699951171875;-2.26693725585938;-2.3253173828125;-5.39669799804688;-5.75750732421875;-5.90625;-4.47903442382812;-27.9383239746094;-38.370361328125;-5.4671630859375;-3.19235229492188;-4.92376708984375;-4.57293701171875;-30.820556640625;-1.03097534179688;-1.52554321289062];

% ===== SIMULATION ========

% Dimensions
Q = size(x1,2); % samples

% Input 1
xp1 = mapminmax_apply(x1,x1_step1);

% Layer 1
a1 = tansig_apply(repmat(b1,1,Q) + IW1_1*xp1);

% Layer 2
a2 = repmat(b2,1,Q) + LW2_1*a1;

% Output 1
y1 = mapminmax_reverse(a2,y1_step1);
end

% ===== MODULE FUNCTIONS ========

% Map Minimum and Maximum Input Processing Function
function y = mapminmax_apply(x,settings)
  y = bsxfun(@minus,x,settings.xoffset);
  y = bsxfun(@times,y,settings.gain);
  y = bsxfun(@plus,y,settings.ymin);
end

% Sigmoid Symmetric Transfer Function
function a = tansig_apply(n,~)
  a = 2 ./ (1 + exp(-2*n)) - 1;
end

% Map Minimum and Maximum Output Reverse-Processing Function
function x = mapminmax_reverse(y,settings)
  x = bsxfun(@minus,y,settings.ymin);
  x = bsxfun(@rdivide,x,settings.gain);
  x = bsxfun(@plus,x,settings.xoffset);
end
