function [y1] = myNeuralNetworkFunction_40323(x1)
%MYNEURALNETWORKFUNCTION_40323 neural network simulation function.
%
% Generated by Neural Network Toolbox function genFunction, 08-Nov-2017 14:34:39.
% 
% [y1] = myNeuralNetworkFunction_40323(x1) takes these arguments:
%   x = 3xQ matrix, input #1
% and returns:
%   y = 121xQ matrix, output #1
% where Q is the number of samples.

%#ok<*RPMT0>

% ===== NEURAL NETWORK CONSTANTS =====

% Input 1
x1_step1.xoffset = [0.0276573991029875;5.03910252042219e-06;1];
x1_step1.gain = [0.0379214855269533;100366.554199104;0.00128287363694676];
x1_step1.ymin = -1;

% Layer 1
b1 = [-6.084081566654640838;-2.9399892944998153865;12.627059460529068247;-1.9166604689106037096;3.2126620143230635307;-42.383832939863864908];
IW1_1 = [-5.0998408649842126295 -0.41754422855041162244 0.29937782950533814441;1.1654443446886080249 0.76568168387536850172 -0.040009863983876521598;10.738568203101982235 0.17944120495020432493 1.19298770744180338;0.40123690151464119769 -0.026931678661418823051 -0.75061565544595165722;1.4056041716949170262 0.56584076111869197057 -0.6105138905403978411;-41.475410188547463974 -0.077346266585116618675 0.13550581731947236586];

% Layer 2
b2 = [-0.5943471222978758961;-0.88996481275771877062;0.65120079561577770555;-0.45854779702073544811;-0.36685470218747939786;-0.1355317193489991856;-0.024924390010721875904;-0.72709108723605442304;0.61717976640712390868;-0.26172609150860592919;-0.10088851228497508483;-0.78230548753014184094;-0.8994699653773304826;-0.49317122036657418116;0.13969980069962023572;0.51615927809111949998;0.30178355619617824868;-0.71080870783992444739;-0.49233415584567957746;0.19980190366177899564;0.16548742284968007143;0.09798551173982082696;-0.81260840226206165759;0.15239933118547724367;-0.66763459709549344279;-1.0069724304388318892;-0.86060712364945046726;-0.93190817975289141906;-0.68394453325278681266;-0.094427315101036468636;-0.46261945739508408826;-0.6634103597543917763;-0.23969793416093493343;0.29074121840785677184;-0.092819188042182171339;-0.68041046363900192784;-0.28443612894174502559;-0.25291860893727469151;0.066138297528747641563;-0.4055614215394658939;0.57768118893993702923;-0.28603946572052646458;-0.23946545461633228502;0.1655262806837023426;-0.88898412750490718448;-0.44333992908044411729;-0.26629323607140414909;-0.61517901877063652094;-0.22485041529404070637;-0.34427169146677771838;-0.75851321109990044178;-0.87247253420277393055;-0.79487451328330782641;-1.2114438885750367092;-0.36056808853037913831;-0.333223548924091173;-0.51609417243506094941;-1.0060679270629968585;-0.58653256755483673679;-0.85079562684776122161;-0.8267340767561252024;-0.2784321301943417093;-0.5807642729670243753;0.10728691774803572612;-0.063386674608703230671;-0.58065303585276395459;0.078474854820758527252;-0.37990745992592683811;-0.19866996085261842686;0.38446252152083443265;0.17651540650151556489;-0.82954066495774814172;-0.6996795957503546548;-0.34971901225350476849;-0.15822688514027732909;0.1201806999422201927;0.48359296542038243683;-0.81170239285564504961;-1.3360254829696764922;-1.7028133829838596469;-0.15873461699199445385;-0.82108141087609376463;-0.45161197412343584423;-0.19333019518491278976;-0.94841504043570967752;-0.040294700572795487392;-0.022574060877932636271;-0.40753946273492325236;-0.14872119844618705842;-0.83531230045007653917;-0.2785273222704687246;-0.52835037125623807164;-0.51134731392614540813;-0.89519900607083324751;-0.50810799093728686859;-0.93121339816017623114;-1.1798818722805124448;-0.26811814823516383344;-0.75115048998102595945;-0.25712746604102992842;0.18791933776231184439;-0.33961209677042247801;0.22739269021290609007;0.19494696211420178833;-0.17884221061921262708;0.606052163320539794;-0.80736321501510777132;0.35267714001919214795;-0.22611620117128863883;-0.36938582208896669767;0.56982235947622861261;-0.1274214622731397184;0.37653731105994381334;0.088241169233993041465;-0.42168087145125476844;-0.45585710508720622691;0.53328569844205120365;0.086750148897970238981;-0.1811167293947401058;-0.076110981046771650216;-0.014852276187747202527];
LW2_1 = [-0.40444591032937998731 -0.2258450283901919653 -1.0587645704290657989 0.094738368248726848031 0.090523933401726958126 -1.8858763710590065177;-0.67674313586617040883 0.62413902999098724855 0.03649192574242483833 0.21129970635162403925 0.057275424952372290532 -1.8993732297074019666;0.06609846118167209128 0.38748722430465165623 0.62031125874515224972 -0.32076076805831627015 -0.31216457924063523155 0.18284205502136102739;-1.1079062615490364863 -0.44530192426011389051 0.56551092623233556456 0.51598530922284369105 -0.59668611822263839528 -0.44393104390778659329;0.097325020350954055681 -0.41820037747989502463 -0.32492754810447377345 0.54230638034084532872 1.051814697731535464 -0.67664666409480922482;0.012693078180674093741 -0.44330889703456932693 -0.21509717156778945801 0.23157974790203364468 0.65555756216908489531 -0.2253621719215034569;-0.061552546157012874573 -0.91005708048639455399 -0.28995971841067097463 -0.3680514854355110832 0.18035630353449741414 0.69979837594494331832;-0.092886971762445508238 -0.5878980665717613574 0.34833655448519684761 0.11316982489173098292 0.58526166173666138715 0.15963187292742733736;0.51511998222775656764 -0.37995951791065707415 -0.97873560358243694157 -0.42015175761076573036 -0.19950755644823930934 -0.14245827662784385503;0.191830856164099256 -0.70663767098676311118 0.55444269233516985107 0.73351672656886934831 -0.0039622291286142766187 0.15569865993361423073;0.18481778594997502752 -0.82425581145656456883 -0.40900209140997262347 0.45742931868875491563 0.20444712709544071716 -0.32035965968893465039;-0.33203717706892293959 -0.25954266180806184749 0.34253229044592187202 0.54896175770443278452 0.32508737122394737451 -0.87447474009049130927;-0.78737714117806634206 -0.39982462252807399183 -0.59433785131455574291 0.035761627132459929135 0.44796775689729467773 -0.52804510108889801678;-1.729411879567053667 0.39660028406434560955 -0.59626535480081310769 -0.19814852621894857299 1.697226349307746851 1.1493456817566978234;-2.0522723505466462512 0.77425667802221431746 -0.96277202985140053482 -0.93729655738172967805 0.73656631624067436803 1.1902403511062042973;-2.0802937974186126446 0.0097748179858236448198 -1.1203146821331408933 -0.024870364666456111491 0.57317380991875799268 1.164496982003926151;-2.1313968539324279483 -0.046655143145917524206 -1.2433108850410345969 -0.3179359667480420315 0.58673595954527124618 1.2161918228216166415;-2.1320197766545501139 -0.40716646977858578227 -1.1078779291252891515 -0.58634870323620702504 0.47736276084156359367 0.87547079200216182393;-2.0014356622371249905 0.48016551186405298512 -1.2374044171137350556 -0.77406838313920356409 0.72836723130072111854 0.37578475217031920286;-2.0670801739129576191 0.092341207300925542967 -1.3198601018417239761 0.28131417350033899316 0.1916471382365635967 -0.11582553553028693272;-2.1739278816682423567 -0.10169119797196936317 -1.2343759727161143225 0.082271057917315162933 0.21889384437562103836 0.4468556353044110252;-1.7663718789853206648 0.53041600175996039823 -1.2123210883322426135 0.18738069254920763917 0.64051257394070071349 -0.28798068453309189074;-1.9534113262551635604 -0.1736896490854508146 -1.4863140835912467264 0.10875781175084126007 0.20797085351118133056 -0.95253644926257530212;-1.3788175984385306894 -0.014443266563063756822 -1.1232729730552710734 0.86083642542615801396 -0.21797168294367011421 -1.5162244666730677611;-0.38983857121681964042 0.25015218475485784255 -0.56771609946734358232 0.80935289621627104495 0.25853165453378507133 -2.5295695812802767577;-0.25557913533475479229 -0.092566241154105569078 -0.37263239444729612249 0.89749772523515003453 0.27126645563575507714 -2.5468436378038936674;-0.50176797829364783166 0.78392678233568280355 -0.61564551653007160148 0.5162617781239509096 0.12796565369175330606 -3.0534391079180518425;-0.51043533680515817963 1.0673094100777924531 -0.84980003774674428563 -0.016300854748534838318 0.19700399968981169296 -3.0364632757569203214;-0.57064655917202256052 0.80689576119806583065 -0.89173006743717531108 0.11108022872359692157 0.2764153729454524866 -2.5506090783097170593;-1.0811723003625388628 0.60809473502942779088 -0.80618070118411588876 0.59540701630178693993 0.43072780382352648942 -1.4970414254343713534;-1.2084681325326995793 -0.17110277271062857007 -0.77229566057371679122 1.1160826857417018854 0.31232071304699221548 -1.5452633827233928088;-0.92871155435439989301 0.25709014407608660191 -0.70204867204533938363 0.79125629037030076329 0.30299946869677124583 -2.0718561867679490263;-1.0017327209441986291 0.38767134705680122986 -0.81502332656786469212 1.0678554788496590344 0.1731355926401483003 -2.2021526728273079776;-1.4816616788088501355 0.6714153950183154862 -1.0518960193263386937 0.83692812890884882293 -0.1348808076168175607 -1.8074008619615262727;-1.4491086635183909603 -0.29845759909602070925 -0.83798779934045730666 1.4663181753386644868 0.015147724169115495477 -1.4861478671348173908;-1.8500953083051678849 -0.6420724920286835502 -1.1352628741127452905 0.40727811915963058054 0.325541491330717081 -0.28285517944794569267;-1.7633659296936616823 0.023837100579282330393 -1.0394964237823252073 0.33190188011616672537 0.59235136992650105903 -0.17854274949194165467;-1.850629914912661711 0.67613288239548419156 -1.0656665193224155175 -0.33957134895385887585 0.57429863186651564089 -0.12654686365037978724;-1.956679386425987488 0.20952533590653932283 -1.2640684532091939207 0.14563701762540770535 0.37822264842083902492 -0.12476935505376474111;-1.8337068896759864955 -0.15710851697979422159 -1.0913847849632141163 0.23824031054204683477 0.45932876600667804645 -0.15304427908700521388;-2.0972416464406666847 -0.10431043148930040088 -1.4852532435211160955 0.19457889262310454348 -0.20427458703601344969 -0.0027066017826709808623;-2.2838801397575259067 0.12307966901397510151 -1.6489815612265315004 -0.56890485722714345673 -0.49264403311436333333 -0.63368324779937967861;-1.8608202542754532782 0.087821318739079806681 -1.6564357159438278799 0.3726433265665218264 -0.1667887025310643978 -1.5481858119360503157;-1.8691342051116761613 0.7859549039353750377 -1.6547364233253714083 0.095718763337915652167 -0.32452279729546124054 -1.7236750612714346609;-1.8857747702133622614 -0.35860606264836497603 -1.633512059689070206 0.24974198059099730895 -0.62277138534241982537 -2.0379567589990119636;-1.9056837079994350947 0.12809976718051943601 -1.656519171917084865 0.26617102725350905157 -0.5402734012431071875 -2.0183797526902655939;-2.0801013632820248844 -0.18665241595259676743 -1.4807379963273172852 0.57408420727970621567 -0.63084407732904779209 -1.5722392286166559927;-0.74159535870666948298 0.52919635091648342673 -0.69337891473677037979 0.91757814077175081646 -0.011324784903355615204 -2.9068234688669560839;-0.89832768782932026497 1.1571415158327826855 -0.71869806960987969724 1.1890948426908853897 -0.29793316504643113651 -3.5536818604994744319;-0.90114003277694032512 1.3763234701350197664 -0.85443719279636276553 0.8438287127804852128 -0.34164577931433331992 -3.7181378716223183467;-1.0278347145260449125 0.36576203358726600001 -0.82253963893509729477 1.3303868768577344905 -0.44795287935991168204 -3.5500703274148790456;-1.1146780547835459796 0.85062368122840104068 -1.0751414719177612156 0.63509326410501898419 -0.34852995587955126755 -3.5379238286886183218;-1.1704962038740329699 0.63063702014995781653 -0.92744113651922721608 1.0753951223967819217 -0.45748683562205794129 -3.5819280822355175076;-1.0727827636660758337 0.61373359131187787963 -1.0302098604498943768 0.54960313147362793718 -0.23010147387373400263 -3.4391547682885335036;-1.0711989197910816163 0.86764360593169276292 -0.86535929650890641707 1.083297105874184485 -0.11284718124774081871 -3.0889856070120238485;-1.0371669733147637071 1.13896504945751742 -0.9607498727890526613 0.91454803558367092631 -0.3327609507948613432 -3.507099659664918434;-1.0169857887302826693 0.57992601050626080283 -0.82687250696648673109 1.2550678309162752733 -0.221693787407838655 -3.2457849958941302759;-0.95967360130479717473 0.458508130870145858 -0.85365529786656513256 0.90308447962140059317 -0.028238738193082611738 -3.1648784699234822071;-1.1025106036577030366 1.0066819934975239637 -0.95829185671484928832 0.53639251097425322268 0.21904806764104511885 -2.6565930991082096213;-1.1424718907539355151 0.78466064522491130173 -1.01574195685730162 0.54493110031104108337 0.00935946811093339541 -2.9218257404947700628;-1.3144200015804758941 0.73909145083801830456 -1.1014251247001853873 0.66990472338936934982 -0.1591250425006293101 -3.0528214975009930754;-1.4101402737596873127 0.82745001868258882816 -1.0645991850571907555 1.0955487354052484417 -0.31540535870978325672 -3.0297715651726906394;-1.8740040697679485326 0.061729451204153545918 -1.4585170003742187195 1.1154622888320233631 -0.71531353764921223881 -2.9025660431301010256;-2.124266008799200911 0.90789332200841388332 -1.8094265901942010455 0.61601052396203037631 -0.8113766803877388023 -2.7658287052973520304;-2.2242918124278903136 0.50856026440256707488 -1.6747272338574363815 1.2911823475194954547 -1.2690772359180126916 -3.4045449477726772436;-2.2707983324444174222 0.45583578114900702438 -1.6318063476217028462 1.360566557311140734 -1.4615642162375692692 -4.020959623636596092;-2.2523733587814267487 1.3505596882453130281 -1.9081587686532628378 0.45508919266550013072 -1.1212572986507829409 -3.3594506254350928742;-2.3161206672013108232 0.60969738905690429309 -1.9394844475190196054 0.62125102134614862415 -1.2211823944840034528 -3.3017948637006644397;-2.1081698789651501791 0.79100588836579144303 -1.6025451257247815828 0.88351531211675227162 -1.1312806448878678367 -3.3460873321635817845;-2.1444498581423543371 0.6883130561187424945 -1.5710306921822201343 1.3791030113510078792 -1.1348955926075374734 -3.0730676285549880511;-2.4627923341798547696 0.7411359415527897232 -2.0044333272192780271 0.19348404838810243089 -1.0320645648427320129 -2.2156394415121791752;-2.176381693056901323 -0.45946098861038286998 -1.7545121852911520488 0.54890936560766312446 -0.73228164871671264091 -2.1088221108754185984;-1.8394215695352738038 0.039082568059133189486 -1.4059426351923784981 0.59597423114438641267 -0.44941738756520022147 -2.23859207687413031;-1.7402515260179827195 0.090967489361958114857 -1.5176945705146800414 0.32979251171424683875 -0.22353101226983679295 -1.6587014530845862748;-1.5039131092978617055 -0.050769695024697157615 -0.98016662452707337128 1.0733319936018637097 -0.13836758304337790082 -1.6751459913244528543;-1.914293246016291139 0.75857802706908572521 -1.4891836430161824456 0.11057572810006326136 0.0036204711285263693407 -1.2288937127328354304;-1.8913692755481164021 -0.49726269168980297142 -0.98277982473509040151 0.82731897584854219296 0.65744816583253973263 0.82649711420133276096;-1.4217776803550392639 0.013405980058948609515 -1.1840069307672262955 0.73108572332851196052 -0.10669279032097438165 -2.3156332377378667786;-1.2995194948094630494 0.29161501373136772264 -1.2151184006100721469 0.55946609521536805332 -0.4191647197889676324 -3.3797831409090841603;-1.0914239358433623917 0.56826223727953528719 -0.53662656865028302011 1.1089596104298162782 -0.56876993430946143349 -4.2314321800393521755;-1.5081730789668570392 0.56606613672966776818 -1.3548131886308150129 0.94354186162330322407 -0.57871687573202312826 -2.9481628115890474717;-1.5915543505042255568 0.022059219444322489961 -1.5083742261588837241 0.4677923036950194513 -0.52534499223354491626 -2.6301770153931016694;-1.5941650964531919321 1.0661064552925636484 -1.452037181416018008 0.19557226217997122908 -0.43190337526978822558 -2.8984897583348221417;-1.8906046533095415274 0.287030754251741127 -1.5850982874173182857 0.55069309228915186427 -0.61086495004116470042 -2.2173054560669540614;-1.8890457871200261319 -0.17621261089574610792 -1.5128817693679557088 0.9018187057451529931 -0.74313234529292404584 -2.90037143518111451;-1.8324983277271453819 1.1288216464043188125 -1.5414425101779651861 0.57129245258288574583 -0.73291431838592346892 -3.0502507991920633224;-2.0374384577609903069 0.82451674403516272971 -1.7085162590045697151 0.67017491531995121434 -0.94077440392740530051 -2.9840315382869180283;-2.6013896317857967411 -0.15922200190060481484 -2.2246286066722498198 0.32601631864952090867 -1.3004628419962713792 -2.3607317097804911832;-2.3336529619823189741 -0.10736193853883019278 -1.6979664188898588861 1.3392673087656175035 -1.3269187737549883455 -2.9008942326850806204;-2.0757695806991955934 -0.14684221114904685845 -1.7893455711907322314 0.46835725716286102926 -0.88733879312148078444 -2.6233492583467525883;-2.0053920651615828596 -0.22372243524981147433 -1.449669022521093531 0.89360538161905445076 -0.63772253841234316507 -1.9021343261745267128;-2.2220921091763976563 0.31403540482797770439 -1.6001874250889907003 -0.078336612500121208247 -0.45671353557533928003 -1.5101024442959187777;-1.8424561576442883837 0.20157126807617162245 -1.5083159328822512979 0.61413499315411901325 -0.55291032062577305517 -2.4151758412063579762;-2.3236676983237423144 0.43759140671751950435 -2.0171401898810774611 0.32165165032050702099 -1.1762397280991290227 -3.3681676601424959117;-2.2503385101569630677 0.84805005940737565595 -1.549009494946493648 1.1184109825320776022 -1.5792246797076425757 -4.1583575507744647837;-2.3349082145406758748 -0.11348169417087286548 -1.0082711289700145851 1.6755132085866535352 -1.8267566190890660582 -3.7788040583869264566;-2.2844785809109229291 -0.1573850679108024786 -1.0890694927974282624 1.3811215107006551417 -1.7930498988746688127 -3.7856436712390881816;-2.6328273089258744655 0.4924472891409799602 -1.8353441847633242823 1.176807960376701212 -1.8123399578331000903 -3.7555401831334607188;-2.0906760863953257612 0.12942999537699473311 -1.5445279450817313016 1.0577289105853864282 -1.2662789534317531182 -3.4906075459217085211;-2.067167075337988269 0.30513999363224186823 -1.5655254049665394689 1.0588266471170113547 -1.0417934030792717071 -3.0062326752484977987;-1.9097365864972615235 0.57903200282549505129 -1.3912394631866613626 1.0124981238298387254 -0.71261648028845248071 -2.4578046408772711295;-1.4303870509362834884 -0.61804860472799894033 -0.58494066682356515852 0.50584808518761448237 0.99638824580341911474 0.74629315685119401724;-0.99608499250462412267 -0.31335449067399012701 0.20106833490083345084 1.0611461638777632821 0.52765471962747623191 0.40989669513393739431;-1.6204727527042059876 0.94213436407009121254 -1.1463457180286573678 -0.080179569690180738095 0.045020136520730856533 -1.0369196390865436097;-1.8522826104034186834 -0.88361038950807135883 -1.1561333270847338195 0.61315142309790315878 0.058076708117562061973 -0.017062991329117281614;-2.0425016072211676921 0.57578987375667922688 -1.3068151645409689099 -0.50594203656056058183 0.46371153216452432044 0.81838917780147935055;-0.46113352130048035349 0.52615742894529604623 -0.74892254865761698213 -0.51234450042340962117 0.09855967674593511807 -1.9528696674596992544;-0.26671077080169885987 0.51807985013765156523 -0.59185727271532306837 0.77305280999796766039 0.1571120671489414089 -1.9901495554092643037;-2.0857508028982678638 -0.24783146840402109357 -1.385266200658110014 -0.22142305447798260598 -0.083377537980132462869 -0.066644714582179381823;-2.1909526315315788203 -0.55380752477774708442 -1.1603332486021513681 0.0079213607017870092675 -0.2027615865379449045 0.071851699369517046945;-2.1105367550334626081 -0.046556842742798136559 -1.1200415948933570842 0.40205824098834352931 0.030524030281890157656 0.31277685025582091516;-1.3046219691843456978 1.0228444405348422475 -1.1215980252859145683 0.96350462365516509333 -0.53222667243795207526 -3.303758461060671614;0.56050861054579281806 0.25274900722722171142 -0.60066583542368146009 -0.15331739360237692238 0.049228174358049235637 -0.68261601293699192272;0.67503025200130306605 -0.25393363417909109447 0.20381752944760303525 0.027525861016827826017 -0.24599528699128944687 -0.043727351292282043427;-1.1960574126911103221 -0.56605643649431425235 -0.34648625571810742763 -0.16444126235626235766 0.67168393819917926457 0.95010221169883812831;-2.4437314669482677054 -0.52326975870853864592 -1.6746077509388752613 0.50493589324184440237 -0.65179871182194604184 -1.2104559162601313815;-1.5260135649778132638 0.058334783640856355258 -0.42527682706310782068 0.4914138896812073054 1.0781421314476944406 1.2560062110222303122;-1.645499324049155998 0.1379333441853037856 -0.83868199960798617276 -0.67980518473365059151 1.4171610426835334895 1.9250851043582652977;-2.6949788537379073539 0.0620164503070069692 -0.60400950133165598466 1.862213440388591712 -2.5171931786249976959 -3.2771326126769597664;-2.795645100587093701 0.082314702488035434991 -2.0377882746309570194 0.96770922138761061859 -1.7899758024724861105 -2.973763428748178228;-2.4241345738715609492 0.12140429659899748538 -1.8723340757503275089 -0.091734735260700361881 -0.51899434412725908849 -0.9346295578452966657];

% Output 1
y1_step1.ymin = -1;
y1_step1.gain = [0.0162606426993223;0.0162606426993223;0.0882857323757909;0.0341135936445109;0.0341135936445109;0.0362846542643161;0.0814522603946835;0.0551861657336486;0.0421282966568507;0.0387344859033683;0.0483993060914916;0.0344578654063242;0.02265119489408;0.0121747323773275;0.0101406666247337;0.00864127614940009;0.00798836362998089;0.0100936250878087;0.00892514547656193;0.00749132705087666;0.00717119653284203;0.00880325511963903;0.00744655768849468;0.0048836430280949;0.00243909020178804;0.00243685459988098;0.0022956240122636;0.00234705054542531;0.00245322060257605;0.00303452349262282;0.00300764646936789;0.0024363610529752;0.00239768303973643;0.00248289222999002;0.00420485138192881;0.00801898856750239;0.00922970235843569;0.00949460662127695;0.00772933140092186;0.00884035196568536;0.00446269846886359;0.00400685952144087;0.00383915028806515;0.00347328420867752;0.00305337493767898;0.00293511411971455;0.00312718394928557;0.00233910873375645;0.00215406855713661;0.0021547150930467;0.00216136594000455;0.00220344328359313;0.00215689978041657;0.00215768589504703;0.00224151273653011;0.00221289729189873;0.00223735871500995;0.0022243051702164;0.00229928231279116;0.00216030187528878;0.00216080089694866;0.00216090263847017;0.00227536886470044;0.00243392758983715;0.00228329163301968;0.00230374191791225;0.00230672956390576;0.00230865387646962;0.00216232809778675;0.00225381291282518;0.00247858581430182;0.0024731113855239;0.00243574358565718;0.00265323509583565;0.00265870504804258;0.00367415664226619;0.00740313469142003;0.00365212251339655;0.00288475793493307;0.00215641760124536;0.00255818548702838;0.00247543582454533;0.00239809882168;0.0024736460783013;0.00234029410372014;0.00222658771186278;0.00229101105020602;0.00248189401961096;0.00238881708756555;0.00242407581924449;0.0026145520150075;0.00332317338921852;0.00245967504335845;0.00247460692166466;0.00217265542611874;0.00216267289156718;0.00216267289156718;0.00244822851786503;0.00221231155973974;0.00237435528189346;0.0024799322862239;0.0140119262582185;0.0227827049456157;0.00472445795313703;0.00516853781942058;0.00640162103548291;0.00693949784151926;0.00697849128646274;0.00382616117855759;0.00414737404066345;0.00423958822895821;0.00288475793493307;0.0387344859033683;0.0337822965631606;0.0189124504127503;0.00306367785419883;0.0142283560393386;0.0104313160408145;0.00216382509441476;0.002503285045962;0.00291648283633652];
y1_step1.xoffset = [240.797973632812;240.797973632812;338.520751953125;299.140319824219;299.140319824219;299.789398193359;330.164367675781;315.7392578125;335.093505859375;332.979064941406;326.311676025391;291.517639160156;260.259918212891;181.452575683594;147.854904174805;112.913909912109;93.5733032226562;147.091522216797;120.748886108398;77.2573928833008;64.8548965454102;117.940185546875;75.9952697753906;-65.6283645629883;-476.935333251953;-476.734802246094;-528.218811035156;-509.395477294922;-472.823272705078;-318.417175292969;-324.672576904297;-480.994537353516;-494.623626708984;-466.325073242188;-133.574844360352;95.3137283325195;128.511993408203;134.534942626953;85.7274932861328;118.708114624023;-106.378120422363;-157.884262084961;-179.444854736328;-234.786407470703;-314.639068603516;-341.740142822266;-300.008819580078;-513.649597167969;-587.993835449219;-587.936706542969;-585.3486328125;-568.044250488281;-587.979553222656;-587.94287109375;-553.315856933594;-564.158630371094;-554.656555175781;-560.136901855469;-531.6650390625;-587.949768066406;-587.964111328125;-587.997375488281;-541.642028808594;-484.263885498047;-538.783386230469;-531.090698242188;-529.882080078125;-529.27294921875;-587.990173339844;-550.255126953125;-469.360534667969;-470.901428222656;-482.977844238281;-415.136016845703;-413.158081054688;-204.655410766602;71.8200302124023;-205.938766479492;-352.704895019531;-587.983642578125;-442.149078369141;-468.586303710938;-494.988616943359;-469.822326660156;-516.583801269531;-560.359558105469;-535.270141601562;-468.195922851562;-499.532440185547;-486.767211914062;-426.025054931641;-262.279388427734;-474.613494873047;-470.602935791016;-583.713623046875;-587.981384277344;-587.981384277344;-479.727996826172;-566.472900390625;-504.215545654297;-467.832366943359;202.067306518555;258.590972900391;-81.581184387207;-45.2379150390625;30.0262756347656;57.9034118652344;59.4848442077637;-182.423126220703;-141.569061279297;-131.088623046875;-352.704895019531;332.979064941406;327.520782470703;240.130508422852;-313.909240722656;204.296127319336;152.196090698242;-587.981811523438;-461.653839111328;-347.316467285156];

% ===== SIMULATION ========

% Dimensions
Q = size(x1,2); % samples

% Input 1
xp1 = mapminmax_apply(x1,x1_step1);

% Layer 1
a1 = tansig_apply(repmat(b1,1,Q) + IW1_1*xp1);

% Layer 2
a2 = repmat(b2,1,Q) + LW2_1*a1;

% Output 1
y1 = mapminmax_reverse(a2,y1_step1);
end

% ===== MODULE FUNCTIONS ========

% Map Minimum and Maximum Input Processing Function
function y = mapminmax_apply(x,settings)
  y = bsxfun(@minus,x,settings.xoffset);
  y = bsxfun(@times,y,settings.gain);
  y = bsxfun(@plus,y,settings.ymin);
end

% Sigmoid Symmetric Transfer Function
function a = tansig_apply(n,~)
  a = 2 ./ (1 + exp(-2*n)) - 1;
end

% Map Minimum and Maximum Output Reverse-Processing Function
function x = mapminmax_reverse(y,settings)
  x = bsxfun(@minus,y,settings.ymin);
  x = bsxfun(@rdivide,x,settings.gain);
  x = bsxfun(@plus,x,settings.xoffset);
end
