function [y1] = myNeuralNetworkFunction_40363(x1)
%MYNEURALNETWORKFUNCTION_40363 neural network simulation function.
%
% Generated by Neural Network Toolbox function genFunction, 08-Nov-2017 18:05:37.
% 
% [y1] = myNeuralNetworkFunction_40363(x1) takes these arguments:
%   x = 3xQ matrix, input #1
% and returns:
%   y = 121xQ matrix, output #1
% where Q is the number of samples.

%#ok<*RPMT0>

% ===== NEURAL NETWORK CONSTANTS =====

% Input 1
x1_step1.xoffset = [-3.58786198815054;-12.1982825630824;1];
x1_step1.gain = [0.264768423113486;1.24977403733373;0.00128287363694676];
x1_step1.ymin = -1;

% Layer 1
b1 = [-1.359472238860745863;-2.5429214841525609181;1.7339944432453298084;1.1079520790595205337;1.7378552651698040421;-3.2473362937863412547];
IW1_1 = [-0.73216148821998938701 -0.44814814790965623592 0.39775998746029717079;-2.4591604114481127041 -0.17991284658947859221 0.74825781795455437173;-0.47621526828013038823 0.67617299389915053176 -0.74237587437930485645;1.3343424918555391034 0.26463743071007927998 -0.21653876131190785692;1.4160787132422343326 0.24637576727806714816 0.7798188440800297716;-3.6199215572138641051 -0.35399758940918252259 0.7660467699113000517];

% Layer 2
b2 = [0.28175597687935483027;-0.62087928666983382975;0.7421653967114179018;-0.68460342663502959937;-0.060080511048834987775;0.10506876715545432344;0.11313445732404067701;-0.59578430269469684344;0.67598439838291368709;-0.4087751779567922461;-0.10988464573234757449;-0.92229702792165391134;-0.40167187917939639608;-0.46662711778427773401;0.20065744721715822463;0.13764410632311432914;0.039657918026186310401;0.14331913849796962257;-0.11833657722424716086;0.59016256958209445393;1.0654867088849526713;-0.076638597646334877256;-0.18611067756033944365;0.321071210013499031;0.063787917886085412911;0.078641128294491227657;0.086879207860539736652;0.023916047342388866564;-0.036260120831436773448;-0.36165204005968520917;0.017326619552625103365;-0.12688564793038231704;-0.079021357263779401503;0.22100629378717781548;0.034041769089225751288;-0.037104149160593694057;-0.26586926036869562573;-0.070003605258143378198;0.22586980433575676308;-0.43862278712050917218;0.85459852112991174788;0.36020358758741904959;0.66033295000064928804;0.65217276770915688644;0.74292719440783439033;0.67984977326020967769;0.69026691913467841388;0.16375709482393413507;0.34575173343473353249;0.40419637645471301335;0.44481296883257193109;0.39656466287311031849;0.48088647212469187719;0.28400825015798336626;0.14820498886645563918;0.34385457967685967295;0.25647967494563461699;0.087837279906741436153;-0.1528539735515845599;0.053646342631053917094;0.18165358273919704479;0.21535321503797202891;0.49327213764864946688;0.6347612170542913379;0.9489031344538829682;1.0880787266386044987;0.89374764679151030844;0.88741136771785267268;0.88732369397326593674;0.83739385846290148585;0.89700721818092643556;0.65117609676642629335;0.30198601085205439842;0.24749105489633349553;0.2842142015989397863;-0.02192574058028992634;0.45393618772751226365;0.19378508498399069082;0.4728490260519984667;0.77430102638197895182;0.52700180401401619523;0.44384152942044197143;0.28788296120087875085;0.5916915983977545368;0.51711868767596724794;0.55675966585216518645;0.69097137680351938815;1.1830283165216954888;1.0082447357370563079;0.712668959513228506;0.57307445728495243209;0.11773284768069611217;0.51479166402043230466;0.89686308108088608204;1.1603830938090489155;1.7331784257522486747;1.6855915762102537947;1.3952947081906328375;1.0031319767829089962;0.83241521493460968184;0.58916045264408989368;-0.16731070971057743213;-0.029780384363940624187;-0.31189400847427928287;-0.12028771947282362875;0.3085519431371288035;-0.26650501374066515314;0.040199498321814547408;-0.070830924379282733661;-0.14714592500383083529;-0.026453614310487441608;0.43075602851084299205;0.23854392279693570345;0.10647604634104354537;-0.16198202312664233826;0.53497974423556993173;0.2429374389154801972;0.24791756591152772082;2.2400709933332314527;1.5598432342394359384;0.44326394878489272511];
LW2_1 = [-0.039411266484562071377 -0.85515259280013933285 -0.51648947767923503172 0.6939263260963093316 -0.29134836965901883543 0.15942422437922126877;0.5475861615181809583 0.35147532930034613985 0.93803744970454461249 1.144213993236868232 -0.41441466694415995953 -0.86824260077201265151;0.28193597931951419611 0.16224602451863442965 0.79912584805426301049 -0.010502209640691189535 -0.23569090989510649292 0.1687686354195535865;-0.7365189816379921206 -0.087617264593574384346 0.43087550880706304568 0.86000647046781486527 -0.15074580240004128995 0.23192168945752597575;-0.15070942201223538892 -0.7707968664498503486 -0.016029084492652737048 0.12249096117323192423 -0.13618049329864181929 0.036435406838553258124;0.28580974429935634973 -0.72294597439741081768 0.048065126134050804863 0.26739449355843175615 0.16059893711005837624 0.2725952403227921983;0.10010579863130181222 -1.1108831546988344741 -0.11018391288316700671 0.073751679046934998096 0.20923763688563948304 0.67244325549988015478;0.24977440479276485918 -0.74400250755807473269 0.59615095724299438373 0.27851420454361464074 0.18532455987823687193 0.31997291179909115311;0.7409712545139307549 -0.61814084192727791756 -1.0324160251085563456 0.11053970669767823609 0.46813733693178999351 0.14227542319836747331;-0.012679513301989389987 -0.49241542593317927379 0.25616636146081062098 0.2684957621509314607 0.31903183517192340579 0.8749794934864770779;0.10563405604449391251 -0.65880724870074358623 -0.54125663064317941497 0.29510117397432744646 0.11521539013860285228 0.021556164822836097056;-0.59466641009659093609 -0.043639404686207299011 0.29030888856284714494 0.099955376851994681697 -0.070715495984536885787 -0.75190433627701547259;0.13175720756282499613 -0.52670437278078108267 0.16097480908573927327 0.14559425831077751901 -0.26472806399199272365 -0.62175077089849006828;-1.6794694904921005918 0.89619757589666304565 1.3483832427060986614 0.6314138171270147204 -0.74733827533071783833 0.54022604139653851441;-1.3680853150931606699 1.2205220617743530731 0.91582064427685283547 1.0342486637305943198 -1.0383837994785229952 0.3140194131119554144;-1.6226627920057319354 0.9898826487697858223 0.68773143181042351024 0.93547431104541900471 -0.98852284022527836527 0.48235119206090087962;-1.6852382228680296006 1.1221683001067208618 0.74720214595615741526 0.96343382592551696231 -0.9384182530994241711 0.40098726810543278143;-1.4871810763756978524 0.63997394009621111355 0.63239103568243104636 0.92517660033994564284 -0.99371738635009487783 0.67149900066588907865;-1.1590031509698648371 1.086875780686793469 1.0550142191611591169 1.3386838264525167119 -1.0729953836092320785 0.32538992079562878423;-1.7049756452129734008 1.054988912859014194 -0.12834971304862352603 1.2822121114222646554 -1.1640791174808473585 0.31666397741816026956;-1.6065694622859860718 1.1520224859382552918 -0.17094488058375950645 1.2502847526392217858 -1.2078016644527158618 0.49557026481780047655;-1.375438577093835324 1.1815373121754533248 0.59706578355781858569 1.3311658119868687855 -1.078428365624183316 0.050565871891448850584;-1.4263003394165705284 0.88397292848353037353 0.300871604018611849 1.3836978082992199557 -0.98380977676093783746 0.11408007696669558717;-1.0117564418245252877 1.2034006860847710207 -0.26578613311404941655 1.2751399174662596536 -0.9144777709458498105 -0.68963251844713224781;0.52138599009890984615 0.96185560402636671729 0.264905374578331132 1.4078733257735229767 -0.39536311593144612964 -1.1073194936083232687;0.60874704266952495146 0.95409610889847129567 0.25858337296342531753 1.328162704455762011 -0.33497160856708541044 -1.1972251732143788239;0.56111220272384609853 0.96582632239192156565 0.13873271291229347102 1.5917203902144962946 -0.42921508196637170318 -1.1104275516382464684;0.58634008690295591482 0.81723625175206837667 0.219797420140545402 1.5708372013996800831 -0.42214337663577877757 -0.97912432083914147096;0.24309265576733549152 0.75452284686643156242 0.19355357419174284983 1.3606531118327984675 -0.4182145559424172987 -0.86432498119688194738;-0.96146766862893029426 1.4676558978162348446 0.1501834047454582155 0.91028957443116131909 -0.45647971076633891974 -1.2151811968661727636;-1.2329674331603170945 1.7772515278397431615 -0.19533677256174922232 1.0696380321007143976 -0.70196613158253706732 -1.2914163688230784199;-0.47932279981966913196 1.3678766908624058196 0.0045097436196337853387 1.2422005269236646718 -0.5401701549458336471 -1.2569097180032355876;-0.32311999865582197167 1.2937543193308316258 0.062090610742135662892 1.4660903107061538098 -0.58961523846349084277 -1.0662747592532886287;-1.0973972198671930744 1.4074989771131563021 -0.35590926905226388799 1.3804990893710282762 -0.81441519410648699484 -0.82509992030717815847;-1.2754658243798020489 2.0111816970772284918 -0.25035677017229845953 1.2193440537958644132 -0.80706701929348734215 -1.4655098389218148558;-2.1242988094333830063 0.69227788571177573118 -0.16427272103829573813 0.79827123038873004646 -0.84149206179220770174 0.27310198626072446082;-1.2019360961451528436 0.79312343891670500362 0.60687456696143016188 1.1522310287645078919 -0.89183761687967433307 0.09628955410827318151;-0.88551787835422013373 1.0972903033585301724 0.67115420804904135643 1.3579278377046637427 -0.98044638377878101654 -0.1784807016203429908;-0.93065948629829586825 1.2412209595123462336 0.61284846154832872678 1.4895655569172370214 -1.0630470534214859768 0.010473450164807190932;-1.5683344139527224392 0.86901525603149532007 0.46779502274491474578 0.95365453859916005097 -0.79367356355827767267 -0.021512465921145921405;-2.0579900184332537982 1.5114581212536948307 -0.5881065277128445512 1.0360686615142895572 -1.1506733162144819893 -0.20445225441245323816;-1.7510580488120692788 0.95784166649689428397 -0.15885458146457862028 1.2124715481101637771 -1.0335170325782403467 0.2324135839230170586;-1.6376528761113888777 1.3417197757221142052 -0.68296502902552447267 1.4912492198300679735 -1.1647935570486649404 -0.33318897564272276224;-1.2653405822744210329 0.95551204902345743264 -0.62062586870582636678 1.479934808451893069 -1.1008636568349714491 -0.19252047773410141396;-1.0058514605851587298 1.0834551001920336155 -0.49970660578978737254 1.8408633247188868065 -1.1420209844001021349 -0.087748515773784119265;-1.1564901416377775245 1.0233781167621160968 -0.58256320919030812888 1.7313088524953734737 -1.1377510608653600421 -0.1118250954042230294;-1.2212048144028435637 1.6905653180996433882 -0.30442155513545215983 1.8798411907533310039 -1.219026355485422819 -0.39207688341876728577;0.43787526794144610021 1.2513749920388748116 0.11592372239422557567 1.7653921320336258827 -0.54628037005914331647 -1.1606705348547610157;0.78089054800018664615 1.0692867758479300822 0.056538315001416185324 2.2594570868380583484 -0.66022801906332428956 -0.82603490080339303514;0.73575346208997449704 1.0213022328031871044 -0.016870090809838006463 2.3484245589624710426 -0.6880951006444687712 -0.68731514058598841554;0.66900410349943251198 1.0978893973303998077 -0.032361075434917604965 2.3384511260358178397 -0.76655624801290001002 -0.75460201405169125;0.46920334651713341279 1.0269699522331703356 -0.087588799905542108482 2.278103194331618564 -0.79623023679976190348 -0.66969373151431665914;0.72504762328355010226 1.1098131567533402464 0.0078077485483545117431 2.4447372570912566658 -0.82225654409939985534 -0.69341599265692976939;0.3762371309080860815 1.0767752503652723295 -0.045588444558141025253 2.1752000082638871525 -0.7501714779973925884 -0.75688020349729712155;0.22002661911787640969 1.3468451341166169932 0.036647688761371220723 1.9822268857161438049 -0.7002089829358992823 -1.0644523072706646438;0.3714901811978652546 1.1443945791009628721 -0.13481842640979507797 2.2036657281632994199 -0.75220635099507970889 -0.8270903699852428792;0.3109998262302690053 1.3193748330423393789 -0.034096339709292003417 2.0688067509822158918 -0.72710590639393257728 -1.0324727691923898387;0.33253114308679865285 1.0896261593309286564 0.085292864562437648024 1.9530033912614823688 -0.65149464941606338719 -0.91290170884187926692;-0.44108570773043498381 1.2999481110114652349 -0.05992428312992501005 1.578198267431346169 -0.62768392851799059695 -1.0798825655486621322;-0.13238668712968065799 1.2206779318799581002 -0.040960754000493454496 1.8663841758632881973 -0.70297754638953457995 -0.87333903165419290993;-0.071596388687160478215 1.3061952643598422341 -0.085706858810711022967 2.0858848139396424237 -0.80231831525725272325 -0.81664843836984213343;-0.17836447500306487624 1.3825701650363826367 -0.15920048117948309985 2.1009939572534577223 -0.84401992219891663893 -0.85124733168042465703;-0.4317640022354508611 1.5109956006372198267 -0.36276097581009070225 2.3421775855098858621 -1.1212370854948860988 -0.67599364935755623662;-0.72095747216780958766 1.7253757093194401762 -0.50178400986999682765 2.39146244557712917 -1.2583057910528527845 -0.68280424896772640153;-0.29468036230067706782 1.6463385222766862004 -0.60593693284996219539 2.9082865893775542432 -1.3799026966884084811 -0.42980573038330283087;0.4177678385918898174 1.4614476863266026019 -0.41369075250804376864 3.46730743102114225 -1.3942563723735399428 -0.086743928779333179246;-0.37347016110645375742 1.6924160319938752473 -0.56538765449887995462 2.7785975547686025955 -1.3592394866966928113 -0.51491462126339393457;-0.47348807678660509435 1.4782139062928734141 -0.6226384720263403727 2.7678012766314670223 -1.3949544722064084468 -0.31038031397769411113;-0.044652301999475715877 1.6503252280383085004 -0.41577229957659189719 2.8499979337933956103 -1.268326011501882844 -0.5084374774283826337;-0.41728424187245460875 1.7410061835747712156 -0.54643054240901267615 2.6621468809555799417 -1.2933729219515626152 -0.61314501602385462764;-1.4839214655152568323 1.5239560949851298499 -0.89997812203042160117 2.0964713514634141234 -1.3995610584476612104 -0.28010707087787117819;-1.1926538663333725587 1.4287442293229863921 -0.64641908612136711465 1.9373370014339594825 -1.2429671527906187567 -0.46803486151940509874;-1.2282594362671190868 1.3477499472975711381 -0.57050801527138061964 1.6582944495647398142 -1.0094660246388533764 -0.68108298477646744828;-1.0254049092031500834 1.1762799313883633978 -0.23715978010448870994 1.5718527402868249787 -0.90888705972939987099 -0.43173871928780893636;-1.172339541610821545 1.5384489508899088506 -0.37941856924364136816 1.3759912807510723542 -0.86458115659094647576 -0.89831984496946859498;-1.7614416517491489067 1.6123921620508818719 -0.25150834636489421969 1.2155851468523588554 -0.92343900613101637109 -0.77350593866748962313;-1.4928980027714411349 1.3398127959861700909 0.36449274135368991967 0.98104077943393930283 -0.95654670839298228113 0.055442564550155275238;-0.88828857671402094986 1.0613113327508252315 -0.4274840885893791409 1.4026585136931948306 -0.81545036258668435192 -0.74650714248163607678;0.086116609293058601904 1.0354768778472678292 -0.21433205840667943209 2.3001153373731257901 -0.88076340097204974811 -0.40991764118744083989;1.6849572741487346406 0.25113186218873106981 0.27837991213634966092 3.2313726553877617498 -0.62256473739555984181 0.71359108705869711553;-0.13371221550546805168 1.0205949452610831862 -0.26139220867553913941 2.20246525910172819 -0.96499930940091360743 -0.34763246124110847024;-0.38765373186236518066 1.1371593595774049934 -0.31793791518514491479 1.9444463984543440827 -0.9718042728073003067 -0.59777421604523461873;-0.70257006082877626607 1.231735458340005529 -0.45533807653325819587 1.8679373372759273675 -0.92886316152766279508 -0.71225544391852169124;-0.91745474830242845776 1.5342845447947508486 -0.51871958425179209851 1.8984396981554692019 -1.1063982818691968646 -0.69593841656363597536;-0.6326233573042109315 1.5105508042632129762 -0.5082374872994877002 2.2418029722447756491 -1.1451803327797080989 -0.72098799541556535253;-0.491092782321610688 1.5038359753043626377 -0.4924069849056123549 2.2968460978231179936 -1.0900793794495540201 -0.69611226189911978857;-0.59874399756121554628 1.4560062664072195293 -0.56296548081837460842 2.4013533763596015547 -1.2106132525541948297 -0.48707129783144459401;-0.93858897447092670685 1.3739072839730674946 -0.75653980357432581982 2.5376871020745039864 -1.5168374881974653334 0.074321283011808236818;-0.68128304346077028786 1.6008364448504579514 -0.7257158301688194646 2.6390271922303796259 -1.4190874014355565613 -0.35677935212808303822;-0.56033554865006307555 1.4835934099938168362 -0.47106493514596897709 2.3047083304560809225 -1.2233657265101387512 -0.54144291094657370778;-1.1494702755231112068 1.5636093052072963516 -0.54763753210626886503 1.8021012973084780118 -1.1093615472751052753 -0.63670660236268217247;-1.4847372658613213758 1.6884840478603011515 -0.12576810844398922384 1.636201372824890532 -1.0434938449415127604 -0.57480015204428425157;-0.68223324167613053071 1.4335207451894793618 -0.39055406215541776938 2.0311417891502832056 -1.0694662845104792037 -0.60790632819396550612;-0.29287286898147069092 1.0916022087168506527 -0.52518629604509359243 2.8817401129973347906 -1.3617006217800335932 0.14826323837725982613;0.70759047929096285934 1.2369396918307813404 -0.35350388863239862181 3.596060738555675762 -1.3336363572985314718 0.16579494215063864115;1.7294563838865886218 0.70469545518378451376 0.14584648427893556755 4.1972076148279997554 -1.1995768582456796114 1.4504876428460076188;1.5359388513616738514 0.63820506365268825366 0.054007363817215998936 4.0954856021631140806 -1.1825270340268485558 1.4880945165865264723;-0.095636280869392895077 1.5962574570861221002 -0.75591963982125887078 3.4297823666672733189 -1.5882332074046423553 0.045988486415387865025;0.29951321982340461947 1.4511233659982227806 -0.33321103970849180742 3.0331155425117146684 -1.2819952942859820233 -0.28210220507165029158;-0.43434497173019503968 1.7314183977366868206 -0.55569948775592037382 2.5385437947894011756 -1.2775480543929185195 -0.70113782419988268657;-0.99163952155789292231 1.4480369937972930039 -0.59456468871424972278 1.9980821635820238402 -1.1344392205841302701 -0.54335857660408315439;-0.91180033783808056569 0.085338689378334067759 0.60248006850939883616 0.30019427575722201773 -0.59336067977092588066 0.15988583383104781888;-0.61326492761190387615 0.063900985029432463835 0.60571835066198798092 0.13464181952464651659 -0.58170253741453858964 -0.084002104413578054798;-0.90757302013528917684 1.9640705375522746756 0.47238635767144726563 1.3210922867487084886 -0.80620497362988230439 -1.3295697817460903067;-2.5148758414115559567 1.4294754433101501956 -0.46872238182588277233 0.63971686060709376243 -0.9156269281655717851 -0.69423964445096586484;-1.5299107213742910716 1.6149091495908618477 0.48220582448029614131 1.0069486537341374444 -0.96646636407910924138 -0.18890146075528155278;0.091961739461531077922 0.29756241925739562726 0.34939554118666921179 0.75540983463914312956 -0.21039374894551893247 -0.71597722584444434268;0.63446437626900309414 0.69207452285196324748 0.57858555727888205666 1.0297563415844925849 -0.30379666729288556937 -0.93194934190758838;-2.4197881807906624907 1.003749482419358019 -0.23081288136174443748 0.64049515116503374923 -0.81505747003846207299 -0.0049015448529720253429;-1.9842607411668704565 1.8699689179086602664 0.19408606900785441152 0.75605806348636261927 -0.77667711659768767785 -0.79781032451307398734;-2.0772752941696639439 1.8552525118032581197 0.028294134620041953843 0.65737581013838308763 -0.81756219954154518703 -0.85798998208427235124;0.11984240216151750835 1.0715098554969546552 -0.16736651589416615127 2.2777014141697620175 -0.86810669787298011535 -0.4810268598777000526;0.15375645501250639891 0.16706309565747085033 -0.90739699284978214688 0.039899332420987025649 0.41050515485472477417 -0.4795325764289066206;0.64725971626214939825 -0.09222222344625334578 0.069872750361329880042 -0.21722032549462635953 0.30594934702853460173 -0.070965269229838132126;-1.2004140104004417111 -0.094616625724094516325 0.52397709416756355072 -0.2858928668535629658 -0.59027959891118442215 -0.0055362184597185521567;-1.8902900658468135831 1.1519857999032658835 -0.62249944811875579376 1.6181964830247168585 -1.2221121111762238698 0.10469225539896681587;-1.1354059678896506469 0.75808106070260039555 0.68684890882878202323 0.42391848129506037868 -0.88611521807912996263 -0.00047226055944727827942;-2.0838933766954514937 0.92894260429760011633 0.48513529307254044109 0.2330450280301488708 -0.71798686120259203047 0.48737920046402849472;2.1085928898802541731 0.52354096553303453021 0.19346293918611784379 4.5447306417703687842 -1.1158720676146729467 2.2553647532121199326;-0.46020567672352308275 1.2604135463023422581 -0.80446310014024913215 3.1629628850433886278 -1.6118610093641463354 0.57120911810896179972;-1.9405616744244831295 1.1271862653226112361 -0.55475620114314361242 1.3344927170019018625 -1.0942938905957284579 0.0019805162659482060394];

% Output 1
y1_step1.ymin = -1;
y1_step1.gain = [0.0162606426993223;0.0162606426993223;0.0882857323757909;0.0341135936445109;0.0341135936445109;0.0362846542643161;0.0814522603946835;0.0551861657336486;0.0421282966568507;0.0387344859033683;0.0483993060914916;0.0344578654063242;0.02265119489408;0.0121747323773275;0.0101406666247337;0.00864127614940009;0.00798836362998089;0.0100936250878087;0.00892514547656193;0.00749132705087666;0.00717119653284203;0.00880325511963903;0.00744655768849468;0.0048836430280949;0.00243909020178804;0.00243685459988098;0.0022956240122636;0.00234705054542531;0.00245322060257605;0.00303452349262282;0.00300764646936789;0.0024363610529752;0.00239768303973643;0.00248289222999002;0.00420485138192881;0.00801898856750239;0.00922970235843569;0.00949460662127695;0.00772933140092186;0.00884035196568536;0.00446269846886359;0.00400685952144087;0.00383915028806515;0.00347328420867752;0.00305337493767898;0.00293511411971455;0.00312718394928557;0.00233910873375645;0.00215406855713661;0.0021547150930467;0.00216136594000455;0.00220344328359313;0.00215689978041657;0.00215768589504703;0.00224151273653011;0.00221289729189873;0.00223735871500995;0.0022243051702164;0.00229928231279116;0.00216030187528878;0.00216080089694866;0.00216090263847017;0.00227536886470044;0.00243392758983715;0.00228329163301968;0.00230374191791225;0.00230672956390576;0.00230865387646962;0.00216232809778675;0.00225381291282518;0.00247858581430182;0.0024731113855239;0.00243574358565718;0.00265323509583565;0.00265870504804258;0.00367415664226619;0.00740313469142003;0.00365212251339655;0.00288475793493307;0.00215641760124536;0.00255818548702838;0.00247543582454533;0.00239809882168;0.0024736460783013;0.00234029410372014;0.00222658771186278;0.00229101105020602;0.00248189401961096;0.00238881708756555;0.00242407581924449;0.0026145520150075;0.00332317338921852;0.00245967504335845;0.00247460692166466;0.00217265542611874;0.00216267289156718;0.00216267289156718;0.00244822851786503;0.00221231155973974;0.00237435528189346;0.0024799322862239;0.0140119262582185;0.0227827049456157;0.00472445795313703;0.00516853781942058;0.00640162103548291;0.00693949784151926;0.00697849128646274;0.00382616117855759;0.00414737404066345;0.00423958822895821;0.00288475793493307;0.0387344859033683;0.0337822965631606;0.0189124504127503;0.00306367785419883;0.0142283560393386;0.0104313160408145;0.00216382509441476;0.002503285045962;0.00291648283633652];
y1_step1.xoffset = [240.797973632812;240.797973632812;338.520751953125;299.140319824219;299.140319824219;299.789398193359;330.164367675781;315.7392578125;335.093505859375;332.979064941406;326.311676025391;291.517639160156;260.259918212891;181.452575683594;147.854904174805;112.913909912109;93.5733032226562;147.091522216797;120.748886108398;77.2573928833008;64.8548965454102;117.940185546875;75.9952697753906;-65.6283645629883;-476.935333251953;-476.734802246094;-528.218811035156;-509.395477294922;-472.823272705078;-318.417175292969;-324.672576904297;-480.994537353516;-494.623626708984;-466.325073242188;-133.574844360352;95.3137283325195;128.511993408203;134.534942626953;85.7274932861328;118.708114624023;-106.378120422363;-157.884262084961;-179.444854736328;-234.786407470703;-314.639068603516;-341.740142822266;-300.008819580078;-513.649597167969;-587.993835449219;-587.936706542969;-585.3486328125;-568.044250488281;-587.979553222656;-587.94287109375;-553.315856933594;-564.158630371094;-554.656555175781;-560.136901855469;-531.6650390625;-587.949768066406;-587.964111328125;-587.997375488281;-541.642028808594;-484.263885498047;-538.783386230469;-531.090698242188;-529.882080078125;-529.27294921875;-587.990173339844;-550.255126953125;-469.360534667969;-470.901428222656;-482.977844238281;-415.136016845703;-413.158081054688;-204.655410766602;71.8200302124023;-205.938766479492;-352.704895019531;-587.983642578125;-442.149078369141;-468.586303710938;-494.988616943359;-469.822326660156;-516.583801269531;-560.359558105469;-535.270141601562;-468.195922851562;-499.532440185547;-486.767211914062;-426.025054931641;-262.279388427734;-474.613494873047;-470.602935791016;-583.713623046875;-587.981384277344;-587.981384277344;-479.727996826172;-566.472900390625;-504.215545654297;-467.832366943359;202.067306518555;258.590972900391;-81.581184387207;-45.2379150390625;30.0262756347656;57.9034118652344;59.4848442077637;-182.423126220703;-141.569061279297;-131.088623046875;-352.704895019531;332.979064941406;327.520782470703;240.130508422852;-313.909240722656;204.296127319336;152.196090698242;-587.981811523438;-461.653839111328;-347.316467285156];

% ===== SIMULATION ========

% Dimensions
Q = size(x1,2); % samples

% Input 1
xp1 = mapminmax_apply(x1,x1_step1);

% Layer 1
a1 = tansig_apply(repmat(b1,1,Q) + IW1_1*xp1);

% Layer 2
a2 = repmat(b2,1,Q) + LW2_1*a1;

% Output 1
y1 = mapminmax_reverse(a2,y1_step1);
end

% ===== MODULE FUNCTIONS ========

% Map Minimum and Maximum Input Processing Function
function y = mapminmax_apply(x,settings)
  y = bsxfun(@minus,x,settings.xoffset);
  y = bsxfun(@times,y,settings.gain);
  y = bsxfun(@plus,y,settings.ymin);
end

% Sigmoid Symmetric Transfer Function
function a = tansig_apply(n,~)
  a = 2 ./ (1 + exp(-2*n)) - 1;
end

% Map Minimum and Maximum Output Reverse-Processing Function
function x = mapminmax_reverse(y,settings)
  x = bsxfun(@minus,y,settings.ymin);
  x = bsxfun(@rdivide,x,settings.gain);
  x = bsxfun(@plus,x,settings.xoffset);
end
