function [y1] = myNeuralNetworkFunction_43423(x1)
%MYNEURALNETWORKFUNCTION_43423 neural network simulation function.
%
% Generated by Neural Network Toolbox function genFunction, 09-Nov-2017 16:48:05.
% 
% [y1] = myNeuralNetworkFunction_43423(x1) takes these arguments:
%   x = 3xQ matrix, input #1
% and returns:
%   y = 121xQ matrix, output #1
% where Q is the number of samples.

%#ok<*RPMT0>

% ===== NEURAL NETWORK CONSTANTS =====

% Input 1
x1_step1.xoffset = [-3.3219428345333;-12.2057048736391;3.65000009536743];
x1_step1.gain = [0.304166042162912;1.24587250852296;0.000182706957739474];
x1_step1.ymin = -1;

% Layer 1
b1 = [-1.1326770456414410049;-1.5050949954311825252;2.1593411145699419329;0.9484828721057996237;2.5590722929916975836;-2.3572121859175316771];
IW1_1 = [-0.69136866586082057484 -0.41096160686738997248 0.41969327501390862878;0.08311776497708533995 -0.56170520932337142384 0.64587200860717708384;0.012147251457853048412 0.48936273649327521884 -0.42734919233300788788;1.2248548734596360621 0.31876100270211749077 -0.30737472296256890258;0.83232936478928953861 0.2911413854998648465 1.6506950075301383141;-2.1817060421988831997 -0.2860004820604760134 0.43994467777500628758];

% Layer 2
b2 = [0.48192755727931202436;-0.56257570539934509402;0.67813106317605020834;-0.43497821918886309112;-0.22754623747370317233;-0.039172493857529806782;0.053278629742038910444;-0.71760607245834340251;0.6766790885667787192;-0.3671574208603910483;-0.12510012483750135304;-0.955262828038630607;-0.68394521640912864235;-0.6455340914064726654;-0.12960822533284546698;0.082028210058503872593;-0.14993652908441262861;-0.24870223225846491144;-0.37278217240820010758;0.66334386457310801077;0.98258891545402426981;-0.039429219709815943595;-0.07346706124729794618;0.5310172681000989714;-0.48250920265437868828;-0.30277304401205473727;-0.0067453450162568004064;-0.59300204746052220806;-0.5623016167732217685;-0.10254309880384812614;0.48894032034279349963;0.23338685000864364816;-0.10327328967176059582;0.91863776112639372595;0.26772993107142950553;0.17465983131316700772;-0.29143420285855864416;-0.33248843451061438348;0.022967460560708030659;-0.3362126845484887383;1.5005955785056024343;0.75767189130014234166;1.3258733520112888637;1.302527707338087648;0.89281653986739817341;1.0463937309472934878;0.64025707908986118078;-0.036767854708214628423;0.052393684075916907572;0.45474303056913495391;0.27523233839794430944;-0.041689213148939509301;-0.050457648485869643906;0.098729518772849134134;0.034158131436954161653;0.55808851041905727097;0.42938481662618721568;-0.21993173298878715416;0.23713913095890915006;0.20686384343995134483;0.30017739574224489019;0.57976780883917145015;0.58152471466231292485;0.91102066027348949095;1.6660821946597330623;1.5592208668574991659;1.3050977648280754906;1.211697982246562777;1.158501951316531553;1.2746496362783015233;1.6746972363834777831;0.94413910342091711403;0.98416268358856684451;0.19082854035219964928;0.84909166330878371731;0.70146066871808898657;0.18360548739456544753;0.57633733266739561873;0.67576984865768030541;0.69654877574091222936;0.51892951043288138013;0.29548744941783133822;0.72392910791473519261;0.78623483707047592262;0.85633589099903684172;0.87136720163986380872;0.81063527987400718633;1.3461986135565073841;1.6703708867280473438;0.75512428484189919597;1.1400860020266831985;0.39381307471902093909;0.78387748299158455101;1.2414400853573219763;1.522156423906351197;2.5275831735420832835;2.7317761052870705996;2.3844716428556056442;0.88525818050858984254;1.3679053826946709904;1.4074482980196738602;-0.50211566447746647235;-0.12161123591001914146;-0.31859975785722055575;0.38603928192570963196;0.21216437106620034125;-0.28932908714371702308;-0.13550385525633179551;0.60556214838500632691;-0.044367163991337589535;0.40176268885572508083;0.68766671223846209671;0.27827657139836775579;0.095348788458782307575;-0.49785456702939551166;1.0456160828408000985;-0.067601865289862186903;0.050308982764876560012;3.4943039392389585451;2.1079101920272846904;0.90763125274476863513];
LW2_1 = [0.3448251828827595955 -0.33536057951261316612 -0.54757111945935521558 0.78774554206549685098 -0.37670664751637278345 -0.62306747404515938626;0.18154709088863932309 0.27964536922438876232 1.1116412339928716246 0.6892013569986482624 -0.6113199064274389416 -0.77273046208484408304;0.035332977018531316893 0.22509327754636426766 0.73448711678395417479 0.22921560714928398972 -0.47855537261616992728 0.17396187035437907231;-0.62338891274346719396 -0.030345977045063900202 0.65557494471137955916 0.44705687363878410245 -0.25154915116197423819 0.094547497846402983601;0.031049782508059311364 -0.486264171211967966 -0.24254468740976675711 0.72674752175628554163 0.13730587515033915169 -0.12391801062942928158;0.36251134091509024104 -0.53081546927783385126 -0.14931668459108146663 0.93317990037575015982 0.20335426172145956714 0.18138518613730841844;-0.051085426911836338826 -1.0485177715518607666 -0.18331968882849744573 0.37141795062759375146 0.048583638317466412704 0.62609282623625572839;0.15140516846824700337 -0.72964912529933845242 0.45770773139930504003 0.6758041636262739349 0.11872197239767577626 0.27887228723725210333;0.52926234228200863541 -0.21906542714853144416 -1.090374596378421046 0.61026822144152881311 0.14410163697928077275 -0.081950833668108680197;0.20334289671524449772 -0.064066584988789643251 0.30051858412591964109 0.5847697871344752496 0.38009826908262761558 0.63655954072565068547;0.29358139274101130445 -0.52207477429506810029 -0.57157909620314395482 0.53201602053926533298 0.25585692088642908448 -0.11411220248707200364;-0.44694184893372529421 -0.1678342528248111809 0.26150203345023526058 0.081249552310039455105 0.10564719507502555451 -0.78948257226841855871;0.2427628462469495485 -1.213235759792145263 -0.16266677330903581145 0.41803056085508982775 -0.35406484387255060531 -0.66944598965647517108;-2.1905229486834230102 -0.65735058055123385401 1.1433814135005722079 -0.39606817228651547413 -0.68710350535215525269 1.2861831220220130145;-2.1077379127403150783 -0.55830489325752974406 0.60978055624360572029 -0.23861533302738019424 -0.55481033985976668799 1.367850912633825855;-2.07574676108561329 -0.42157775776938560819 0.50961798553134241008 -0.13824883878183050201 -0.59313038602346901396 1.3717587273929228164;-2.1415677980301675021 -0.43814782345750685755 0.55673709810434368617 -0.24342537599604821552 -0.53676168386119194054 1.2249292654119503521;-1.2928235014079134668 -1.1513307005828745666 0.2356948750174057694 0.088307626482137233093 -0.53672388088338573997 1.0049590805651458236;-1.7736228785346002113 -0.2898939056409506887 0.94930799212524885622 0.10117771997839633547 -0.66523382461816371602 1.0916491490978552648;-1.8106086038709359176 -0.23445919506825854683 -0.35651070836706694189 0.11910054694175588319 -0.75168425041236197615 0.75563594891622343219;-1.5883595001140402569 -0.60418923691002424103 -0.71499256968533619894 0.14752697753154461746 -0.7181602475309061262 0.92378708577888757336;-1.9418524602068574225 0.058751357926225149242 0.60940100087628745751 0.14813213973389241507 -0.74584417344944398121 0.87600593074594623744;-1.462607779082220949 0.082140360399199474628 0.57360376102242716101 0.29646962678030563954 -0.79045878380836109844 0.4303903535878998432;-1.346948263348618724 0.32002530768113518489 -0.077895163937238734442 0.35514138022541053008 -0.7951751223094323251 0.10147885926331078055;0.35964672757607829556 -0.049107770323197658113 0.59119751741700932168 0.8669199584339083442 -0.42235690591593089138 -0.70093793643119040038;0.63726324413290347248 -0.22024214091387311898 0.3114011515639267258 0.92325572191364579933 -0.35748285383893113609 -0.78835209005861495157;0.85328733123832323226 -0.31223880916321306023 -0.052516649199063472619 1.2023901539596033583 -0.47280306093114327082 -0.8081987585185748113;0.60731384103798857765 -0.066874524913113145286 0.70724698245998551815 1.0982560548596729255 -0.48520535406298898051 -0.75333296851094266877;0.015583900528569661487 0.15146896595554915077 0.77420819199433565938 0.78878933007394558263 -0.47389313379706193841 -0.58342510050580087544;-0.72422921977659460158 -0.19291844942752042757 -0.065422029948952367673 0.45198045499338085351 -0.47492707009530094053 -0.21793918726375141603;-1.0832271107730762072 0.011398826558271853149 -0.5176262393971327036 0.3874003765744902239 -0.583655523936270626 -0.093546896498363757422;-0.43959024130036539191 -0.066357622647324671084 -0.29252247721621199572 0.67157810573671172794 -0.55928315903746461668 -0.3736279993483428985;-0.63107097609190876408 0.197801754202482305 0.24790727285306379812 0.69940925600982983834 -0.59099682141693921089 -0.24893753688799041823;-1.6390656944699710795 0.61918550143618167336 -0.45993215987761632002 0.41688577680151306382 -0.75328147123652244854 0.20915658614130902548;-1.1902247128425635925 -0.029008221208313599709 -0.37234102002030633471 0.40374549733889980585 -0.59163477629879979158 -0.014792767600000849421;-1.330630872491602279 -0.50916508879653543662 -0.17353162786921860761 0.2345642493065381029 -0.61756610840474546187 0.49601354724215157566;-1.2560358925136452246 -0.48572611044381258649 0.48269913401030933864 0.3015386483368253101 -0.61059727686714659889 0.65302793265569436532;-1.2914682903095500155 -0.5698590102791067924 0.32141744893214874157 0.2297140421064221838 -0.52712995338227874864 0.5812629294545783587;-1.4624132255340549502 -0.31091073762172460881 0.33015759760778751186 0.22202895727218607824 -0.64921744225390931593 0.72996580147842959896;-1.4368875082002270371 -0.38861073829663222989 0.40945123517672871172 0.16460080224936399218 -0.56141417825228845384 0.53592001884397233447;-3.1212390267998046944 1.0088116035834857609 -0.28348194088866729423 -0.29091303336101154153 -0.83279691717837678322 1.240738280662729176;-3.0811971260935013817 1.3989497464139584171 0.7123660693038287306 -0.19154304110750036694 -0.91715679201003330601 1.0838708463523072378;-2.3327230767209106155 1.0117010647109787591 -0.37455725982845716748 0.17683978288061674711 -0.88809907942897459154 0.61684990826920660378;-2.4016659235874224798 1.1974933599624482117 -0.18153614856395508537 0.20374978188944412039 -0.97204986883225885652 0.62103522559980373074;-2.3238797675191378289 1.418989911444990426 0.3687580729894852638 0.32258264924329249634 -1.0389468002724757678 0.51792956017038893624;-2.4765743184446020742 1.4332284838083784173 0.15477378066148619884 0.27163860036887832461 -1.0373678539601585147 0.54720408248138563412;-2.624564998136799332 1.3913134880796831361 0.53137192047285586316 0.12634327934934885818 -0.91950231286674877218 0.6682723417116552822;0.27510070176482642745 -0.010015358270411542363 0.11907613522944875128 1.1097996051081921998 -0.55564024555441715592 -0.56393090997368700013;0.91197830296167126107 -0.044367244278112789868 0.39572004235997904065 1.6900930595882361906 -0.73707484549045609867 -0.3960421189890718785;1.1340563987071183849 -0.14532395846295856345 0.085955360043753120669 1.9138554913474989938 -0.78547815338126247831 -0.24842710042371496382;0.59897443704854447244 0.16741313729976467495 0.32968284135935782553 1.6449646234530186373 -0.8182313757333447013 -0.26163121884184070698;0.13059315930665488237 0.43964327244191242494 0.72430461043583871383 1.440015736936334001 -0.83657651661354071049 -0.21132311616865337434;0.44085065816141094652 0.33810929570066794447 0.87655529951425203983 1.639669256331694136 -0.89203561292298327867 -0.13200618132878999544;0.2921348788460755852 0.21239826521831239869 0.43581427000084221879 1.4738914621078815781 -0.8111512566050431694 -0.23353439751488117015;0.069313212561407863688 0.091813047395364957848 0.16132697837457113388 1.2242317218036560256 -0.72282042302352966789 -0.38901052741049729766;0.33682803480478501479 0.14189846416493354098 -0.14319719248216394858 1.4888368444424748827 -0.79095599885389433759 -0.29196289095671429381;0.22075470906732183596 0.04928314816057956238 -0.20664081460556410486 1.3165980114838273796 -0.73589907896473727433 -0.39218313816279692929;0.22335455953568719711 0.084462113023966070569 0.45645391056394457596 1.2630517386238284683 -0.69992215383059364076 -0.43667816992268215781;-0.31005579969189012157 -0.028349076902446500303 -0.2676377721374000318 0.99490744858653301641 -0.67646611659652711168 -0.30001378480755214184;0.0090268205096392332282 0.0388595208182364385 0.071713010772539928506 1.2629173881449635708 -0.7571739325295150369 -0.18891566689513900057;-0.089622125791871731781 0.19619472253070116552 0.1958087997120371293 1.3669316118963983353 -0.84769384791924839995 -0.014902283697701194237;-0.20582420264735773463 0.22474685289979839942 -0.072411685006423198718 1.3580461726379213783 -0.87622464446520853532 0.048219893829335669366;-1.4511981565844334074 1.0745305300179279762 0.48254598519705205195 1.010421229789394415 -1.0613228131974279389 0.47088141736699740125;-1.9735418309735426323 1.3313318305457153556 0.31024578379141265483 0.87707550628812802618 -1.1711236578615580317 0.6561810978286294338;-0.97156342535376483127 1.0549444810977224307 -0.0014544286624609519942 1.6451916196489388966 -1.3625804687063343135 0.9606788679685910326;0.21767075915232070304 0.76680171862729917809 0.63361471226392163114 2.4994214900631357423 -1.4680767724828243104 1.3401994084269270857;-1.2763618931879265883 1.2041422323245865034 0.27578979315246143766 1.4211138756768797453 -1.3239060922637395645 0.8462137725602163485;-1.536574744312690699 1.4117960348283387084 0.52041444348338961046 1.3478259112420991617 -1.3451344308919770398 0.95306933968024365456;-0.78628336190127157135 0.98666146158240197739 0.49834162364385575783 1.6482515438436664557 -1.2486432850681730145 0.94133300739262426582;-1.477072005629107343 1.19880433678182996 0.13275548374393011941 1.2211077947354758155 -1.2184686446370689428 0.77654324289890208632;-3.1428318907747994082 1.8685088557597979708 -0.16285439258631553838 0.37754408540539285966 -1.2427658635634357687 1.004289913743692475;-2.9439312284871226311 1.7362478204675120264 0.30184422830226104173 0.27153766799893891415 -1.0855807604466802818 0.71630062606801336855;-2.2421092766130454876 1.1426846832540149546 -0.29240626319953000323 0.40419252072294525879 -0.90088444512902243755 0.36800385101923799303;-2.4242132175167512287 1.2723320006017573292 0.67573276734037190927 0.12453732941884501639 -0.82599453371524877987 0.38042752526729151086;-1.9040837879020289236 0.73375554322047276123 -0.397839259630969444 0.23157492098596579866 -0.7265639346872071469 0.19173220599593743252;-2.2683719332403984303 0.65406813649270023614 -0.25979498294141467607 0.089497187623472973517 -0.73619370949380624758 0.47032225885598633042;-1.1882844034417361367 -1.0977963055041839446 -0.26461300463171849584 0.12373228636055928764 -0.55164903954499244776 0.8175265232508963642;-0.89115857965028777432 0.358822157595360125 0.010205135452007791166 0.77976548090710517958 -0.82255001129353932932 0.14216059715124240714;0.083573585031754868413 0.39745810580268048362 0.35323820370217728914 1.5844304815732019875 -1.0304901968920190392 0.18490379847170979044;3.1316029518176322632 -0.67538567333662136161 1.1735329311385298556 3.5432204813381464881 -0.90995279307307175287 1.0951165982462924831;-0.86016750566567756753 0.86816864031972273974 0.55090536213491170248 1.1146117378955064936 -0.96477911581367992166 0.28509358097431364287;-1.5530491509477193368 1.1437323331515925062 0.63700604993178067126 0.69848041992025666769 -0.93997914227057621783 0.17424136044743940288;-1.3545579345468554688 0.86367404783752665942 -0.10763715907916650283 0.80846320658163706163 -0.88709232330224874197 0.10385441492536172381;-2.4256633101022755383 1.4164077511238031271 0.15538019947916592578 0.36053282622712512495 -0.97664307271214167994 0.40898594945453403682;-1.7076527955639979606 1.1797029625258612651 0.11803254548909541954 0.87158576344983884621 -1.0378595224112563411 0.41829266602758746751;-1.3150319034123498785 1.0056171520751542303 0.12063022908159036495 1.053701925545157847 -1.0339389915979408929 0.40140534644301006928;-1.7906815312391946016 1.3888440603764860004 0.52530766028296527193 0.96891265951407434809 -1.1250275769986488594 0.66234016283852448215;-3.062924400218149934 2.1759042123603253849 0.76017697672776674001 0.61045899436440331787 -1.3655574906757761422 1.3228430406419304788;-1.9305592434166480853 1.5011013780702353593 0.039418402306262652346 1.1180048161412208252 -1.2997219960082209145 1.0496616108583269877;-2.037037048220614377 1.4713393236459986202 0.60961470557211616672 0.77231916417608881265 -1.1174919384248542809 0.6675042439898640767;-2.3393724628064407334 1.2223405844039008095 -0.15811191526910156613 0.38304057908549138389 -0.95159885533840582461 0.60354298768224368121;-2.5034380757966609998 1.1059931933477593624 0.53769101384691753154 0.2033122659862367787 -0.87506864987403798484 0.71731406680257669972;-1.7680264093574904471 1.1162966984385391811 0.29871063608048464832 0.73825607761089473424 -0.99547012159824721511 0.55382063577562334888;-1.1457106379589618861 1.3296473629730376498 0.86871185129296968341 1.6720575251332454592 -1.3973343083374232254 1.2932424174845329468;0.77421184376136098493 0.63163419093229178358 0.94232065262945430284 2.8319372018459607609 -1.479763222750626106 1.5116614860661585773;3.3529106253223774914 -0.38871004677482506873 1.6988062462613067183 4.5591632653723923596 -1.5830743043347768051 3.3091186125979747956;3.3219204887018971561 -0.42307616434586525767 1.4159014376956287062 4.549498943899089376 -1.5541022015407759405 3.3146660908534526513;-0.55515017045439740695 1.150213915138453169 0.16726884877981970656 2.3064949148921285449 -1.6111554536223382517 1.7602461809751250854;-0.52997634296989715175 1.0591214737691196923 1.0149496484774205296 1.7922090966881838447 -1.2818537099009410518 0.97244497410478225596;-1.3568527775634799948 1.1195710848462556708 0.00097183814843757661706 1.2021169644211837646 -1.2009279010372386765 0.70134388412454118367;-1.8277996545920358606 1.078163771078943789 -0.33813418607238948654 0.78062085410966763899 -1.0463505626420754879 0.63455026284818005777;-0.68733749951478906315 -1.6754323791102827546 0.081539319649911845556 -0.052170930780633659185 -0.60642649174629403852 0.34824531817169984693;-0.72194597636402324525 -0.87357433180167665121 0.47157228982509069581 -0.20911413386001193038 -0.66005335225676409205 0.18770858490118333406;-1.4846730551568934064 -0.11498620531322363558 0.11668929179963828668 0.19861536923995415371 -0.57327557992620248317 0.088480873864695303022;-1.8470309861800144891 -0.14176884476471979246 -0.11238180100608512191 0.05471853116031491493 -0.70677056741395671846 0.66481619356198384807;-2.1227127402938870127 -0.26622412098474368403 0.15296177005335462318 -0.18649617208896196452 -0.65237023225110024605 0.95487169991383213929;0.38319895006962062523 -0.26558717001774939659 0.22031062768433021248 0.57093176918225718719 -0.30101814132971810301 -0.86016919609829867177;0.55358742197722432543 -0.31984928470115786547 0.27087871934730900492 0.70986652827881513428 -0.37445049328755769524 -0.70835977646770620364;-2.7070216572841228064 0.71625733960245163701 0.30523155566613674461 -0.23131519186435839375 -0.72621953555320195584 0.97743923101140894882;-2.4863583289690969202 0.52988929913584914555 0.86559164023059509407 -0.25473210830958098461 -0.6833683241569783462 0.87519060416130489699;-2.5158054949023855862 0.31836136098890432944 0.13915933353514173265 -0.31175395412950629437 -0.61662011032306152103 0.84618376973019937548;0.062838619658361516418 0.39793463017555308348 0.32486361664454255216 1.5840625969046528976 -1.005015246589658684 0.21080587639982936721;0.080542145369364451235 0.52056258886828032928 -0.9039265608067007518 0.22217402567327107499 0.3888673516821839482 -0.62456730873048404984;0.81864414823109277197 0.029833824573633444671 0.083479509562706902259 0.1063498586622255021 0.17156978542027181978 -0.19005980632778185502;-1.0968455066525784058 -1.4918588043315175184 0.15649081076940912771 -0.61204026532739363997 -0.507267882505032075 0.20441275642462622408;-3.256087148921539054 1.6516518575784069345 0.45981879990550961201 0.043014276880287770355 -1.0786750722703886129 1.1379146975838390077;-1.5221215800131646656 -1.1613416936278218028 0.23640457608080964191 -0.48166904309897945469 -0.74606533774741667919 0.69639948302849963291;-2.0065841764323195662 -1.1905766116234606233 0.030444120546394018434 -0.50507309222330165621 -0.42452648872780268663 1.3638539786677370547;4.1400105296650728803 -0.59273881225690117081 1.8425942628929139477 5.2647396326189292992 -1.387049318212554061 4.7550152392937068413;-1.7876640802373124917 1.8224425454283645909 0.81597625460285294619 1.6872396980598438621 -1.5780082680386762206 2.0945031813386547626;-3.6131055496767428004 1.7475603857275230357 0.42972537031801472107 -0.23546068484434687362 -0.95720444050619324372 1.0635152510346348453];

% Output 1
y1_step1.ymin = -1;
y1_step1.gain = [0.0151077814895098;0.0151077814895098;0.0767051971703722;0.0321390862899354;0.0321390862899354;0.0393982769265545;0.0801638113038607;0.0544207744929192;0.0403722556556333;0.0379603274726981;0.0469334219446117;0.0357538583408302;0.0255430370318692;0.0131791833817126;0.0102815777364684;0.008486003697412;0.00781069272106033;0.00984196258369239;0.00837317295995101;0.00693461294662482;0.006690532109955;0.00812967410750711;0.00643403500056479;0.00471406809740964;0.00245562187379956;0.00246643761594357;0.00230489040797573;0.00236119750068167;0.00246926427973883;0.0031232496474692;0.00296778435126836;0.00245811349991013;0.00240903092525814;0.00248849296037025;0.00409351792099309;0.00736687335038961;0.00855864793056363;0.00883374924625822;0.00709714688165237;0.00818492183306605;0.00400209533531411;0.00356902828880789;0.00343496907644664;0.00318721642972719;0.00287581289786463;0.00277246117228116;0.00285692115480017;0.00238689683379971;0.0021620253522017;0.00216225283148189;0.00216242891290466;0.00219171624498302;0.00216383616825609;0.00216493547147139;0.00226160287929212;0.00220388009474505;0.00223004118920376;0.00223536562209189;0.00236067544653313;0.00216684644919181;0.00216671119484753;0.00216701905195165;0.00225753657275731;0.00242801410186559;0.00226993738171853;0.00229175572211567;0.0022969622870028;0.00229199144210349;0.0021663862379468;0.00222342217296363;0.0024483275714052;0.00244485269087308;0.00241678821104753;0.00254634314608202;0.00255230569562267;0.00340438794937261;0.0071808690148833;0.00357353402617994;0.00285393650844802;0.00216094774124313;0.00250742171729616;0.0024744215507256;0.00238729827345982;0.00246779424208204;0.00231923529218168;0.00220272053598278;0.00226121092026585;0.00246131963853724;0.00236765204069994;0.00241104054669285;0.0025464855228086;0.00311682817076962;0.00245212480378343;0.00247056142995806;0.00216705745962642;0.0021678285523357;0.0021678285523357;0.00243701263512366;0.00218783061284996;0.00236236015120605;0.00248059762054003;0.0148485941177717;0.0245906037447989;0.00477565137759518;0.00491708616352054;0.00624405146102239;0.00679561002099468;0.00683255244797986;0.00348171817713119;0.00380542422763145;0.00391767057373645;0.00285393650844802;0.0379603274726981;0.0329444339158363;0.0197621819697229;0.0028947825008419;0.0151081611180629;0.0113285144738643;0.00216831685297607;0.0024925504173242;0.00277479750871147];
y1_step1.xoffset = [231.222290039062;231.222290039062;335.164398193359;295.347808837891;295.347808837891;303.585266113281;329.165496826172;313.861450195312;333.343566894531;331.2099609375;324.515289306641;291.205444335938;266.961364746094;188.773910522461;144.94482421875;102.940879821777;82.1962585449219;136.488754272461;100.300277709961;50.3327789306641;39.3251800537109;93.5762710571289;28.3591899871826;-85.4447174072266;-476.543823242188;-472.14599609375;-529.6220703125;-509.055114746094;-472.213317871094;-304.749847412109;-338.388885498047;-478.388336181641;-495.093994140625;-468.375305175781;-151.405502319336;68.3982238769531;106.658409118652;114.02473449707;57.9412155151367;95.8365707397461;-161.881774902344;-222.736114501953;-244.181533813477;-289.725616455078;-358.016784667969;-384.516448974609;-363.516571044922;-500.229858398438;-587.912170410156;-587.917663574219;-587.93017578125;-575.949401855469;-587.920166015625;-587.927429199219;-548.713439941406;-570.810302734375;-560.622619628906;-558.863342285156;-511.961395263672;-587.890930175781;-587.954528808594;-587.915344238281;-551.080871582031;-488.773010253906;-546.0478515625;-537.698486328125;-535.6962890625;-537.444763183594;-587.919067382812;-563.875366210938;-480.619598388672;-481.662200927734;-491.002288818359;-448.437530517578;-446.305145263672;-249.782745361328;60.9882507324219;-220.199264526367;-361.987976074219;-587.991577148438;-459.475158691406;-470.398132324219;-500.279113769531;-473.165954589844;-525.717163085938;-571.499267578125;-548.168334960938;-476.157775878906;-508.504302978516;-493.0693359375;-448.615051269531;-305.924407958984;-480.196838378906;-474.197143554688;-587.923950195312;-587.999328613281;-587.999328613281;-485.139892578125;-578.395141601562;-510.508148193359;-469.945617675781;205.852767944336;260.895904541016;-80.3314743041992;-68.1605453491211;18.6738739013672;50.274658203125;51.7742538452148;-238.157089233398;-189.29150390625;-174.37939453125;-361.987976074219;331.2099609375;325.649627685547;240.219879150391;-355.181732177734;208.134582519531;163.174438476562;-587.999694824219;-466.002044677734;-383.828155517578];

% ===== SIMULATION ========

% Dimensions
Q = size(x1,2); % samples

% Input 1
xp1 = mapminmax_apply(x1,x1_step1);

% Layer 1
a1 = tansig_apply(repmat(b1,1,Q) + IW1_1*xp1);

% Layer 2
a2 = repmat(b2,1,Q) + LW2_1*a1;

% Output 1
y1 = mapminmax_reverse(a2,y1_step1);
end

% ===== MODULE FUNCTIONS ========

% Map Minimum and Maximum Input Processing Function
function y = mapminmax_apply(x,settings)
  y = bsxfun(@minus,x,settings.xoffset);
  y = bsxfun(@times,y,settings.gain);
  y = bsxfun(@plus,y,settings.ymin);
end

% Sigmoid Symmetric Transfer Function
function a = tansig_apply(n,~)
  a = 2 ./ (1 + exp(-2*n)) - 1;
end

% Map Minimum and Maximum Output Reverse-Processing Function
function x = mapminmax_reverse(y,settings)
  x = bsxfun(@minus,y,settings.ymin);
  x = bsxfun(@rdivide,x,settings.gain);
  x = bsxfun(@plus,x,settings.xoffset);
end
