function [y1] = myNeuralNetworkFunction_42409(x1)
%MYNEURALNETWORKFUNCTION_42409 neural network simulation function.
%
% Generated by Neural Network Toolbox function genFunction, 09-Nov-2017 12:17:02.
% 
% [y1] = myNeuralNetworkFunction_42409(x1) takes these arguments:
%   x = 3xQ matrix, input #1
% and returns:
%   y = 121xQ matrix, output #1
% where Q is the number of samples.

%#ok<*RPMT0>

% ===== NEURAL NETWORK CONSTANTS =====

% Input 1
x1_step1.xoffset = [-3.881613967557;-12.200436960211;1];
x1_step1.gain = [0.264584031030139;1.24818388552574;0.00128287363694676];
x1_step1.ymin = -1;

% Layer 1
b1 = [-1.3540096113896824548;-1.0641751163821933091;1.5797408368286496305;0.88316064639659341839;2.4432390333830942275;-1.8421770454483401558];
IW1_1 = [-0.94595193974540214832 -0.3977666601718229944 0.48439585264245060836;-0.68513793487457785858 -0.39149187221622105959 0.38835067231054792858;0.26415521794831098301 0.54304302547185256955 -0.69284056028202911648;1.3907716862875889596 0.34415996537148668688 -0.35507497994195574842;1.0308274151936884788 0.2851177117152088325 1.9243553869020531;-2.0578718490126024498 -0.18373041509389079207 0.35918588015850227979];

% Layer 2
b2 = [0.88996092263992199189;0.11259010101859591446;0.69073628303180556465;-0.066707288096867392579;0.15306950359289500652;0.2633630243197222498;0.11214025265888362404;-0.35795598424409613703;0.76402262206367432817;-0.13204255211388404856;0.24863388761166288488;-0.5916962208623287589;-0.38673136538709157461;-0.58135646060690571169;-0.52407571889728565839;-0.070276090436208138446;-0.3518527504759478286;-0.34194624504967041645;-0.36560972646065204028;-0.13754628295274404226;0.23204465571070917451;-0.32297667137181984565;-0.043505349284517762232;-0.012181268665309268051;-0.22999552583742483014;-0.26679208388648856243;-0.0094646056645752776881;-0.11170727532221258471;-0.17722999120815130514;-0.44352114627278388381;-0.29866983622140924615;-0.28544146045578244753;-0.028632527157606446622;0.08764944609116590013;-0.22380048177013131538;-0.36031675001925278501;-0.43124718172042247888;-0.73772737216586747877;-0.41243735133018982753;-0.5544332768577063808;0.99089010239943020597;1.2675876118256417246;0.86950567682869139841;0.94610775363013066563;1.2490771138659773065;1.1940282350773687714;1.0338414961186412899;0.094011165207925545539;0.63669714908120489394;0.8346045830974331281;0.76647081232131697437;0.71458383713677897653;0.88403474161374129281;0.66013697024645312528;0.30572056529506219658;0.62017326609552647643;0.415156632869696951;0.32567723886275184997;0.1138642641790131721;0.47221471324273128767;0.63978045343794132105;0.69536331497494063836;0.85428000663771253009;0.74329325286549396967;1.2704830077531850119;1.534166915228238226;1.0916485010816303625;1.1839228562524717336;1.5860696295813707657;1.1815318396526977018;1.0202669784186928492;0.7489642384625994076;0.39688211616696927875;0.31168429403788944221;0.06586995489770315626;0.031467336679106609754;-0.42091785013529969817;0.26564983637747580092;0.56034885189703964592;1.8791207391038340369;0.62782392421821908712;0.50895361323074905791;0.401550250016357968;0.52012106749007724904;0.66985534295862614318;0.92349802596745778072;1.0133983894347819987;1.4622632280590870391;1.1856604724239221405;0.81110722136603097265;0.49700296210583932988;0.33239161692871205256;0.56539866875746469521;1.4025112912092556616;2.0748621785548237995;3.036821898225268157;3.0267895839114440371;1.8197909290489195921;1.5128321743517942899;0.91210945172903845624;0.64452305674061882712;-0.60649035484920665873;-0.14623490098130639825;-0.50369322498932367349;-0.45260831603292300818;-0.38910553634490763208;-0.20563921553415673293;-0.58875335428381947445;0.60537700845389141868;-0.045091733440339488992;-0.22258590979050763003;0.51437169674586458168;0.40797876008337430331;0.11375468951400001527;-0.3701590852998316028;1.1299054243786195162;-0.38909931792775892534;-0.40582894685000797663;3.9104761609090799013;2.1757581691620559994;1.0463740916338792886];
LW2_1 = [0.4197859678297040098 -0.7943737507669306197 -0.68976175303046127762 0.07709203528159222496 -0.29924354192756885684 -0.59605532653733217519;0.31761183794567310335 0.58305485298780368453 0.65721638486335831608 0.2266625059762230332 -0.23735448147907470262 -1.0304103716619441578;0.25554550531113795486 0.16722640531716043144 0.7681231822113101515 0.046226830924752666807 -0.31625562328465844919 0.12771223433309517037;-0.66667560456355035026 0.10090718102314188975 0.31026598067460575692 0.088233646809498786356 -0.011122749128502184071 -0.070841828011107235707;-0.13673498710327330885 -0.4425156900418698025 -0.27410564431860673373 0.04782138979016634095 -0.0029629147278186665319 -0.48882012077464936928;0.29780569030632397798 -0.59592112314019163311 -0.064894069417352803764 0.229198258022189294 0.13528292515695058973 -0.099701176585660869489;0.071301732676349899309 -1.0983487053329135108 -0.13087825078165243875 0.2740331045465904114 0.17975455401266438038 0.54867837753514925314;0.19650783625385365161 -0.78205749701120730322 0.67774290110147294985 0.11843839211729498273 0.10089594063036547156 0.15100267103677264546;0.63085275074276847551 -0.43338877508596007626 -1.0897709592368616249 0.4289712296075199327 0.33705231299696364333 -0.096761338469188135081;0.012606083065458243558 -0.089991933433965276556 -0.013781720760974372833 0.31307287063394778626 0.57135486851414218901 0.44622229472844349152;0.055552958843875829831 -0.65620989923775185915 -0.45242139652233892555 -0.11051977344109477353 0.15227652933820218228 -0.15374749572600060477;-0.57338017699650678516 -0.18551217389935520385 0.45107133403093369051 -0.53413584792567336823 -0.10747121097595059569 -0.88457915866495928636;0.37478948073870055335 -1.1078063283854233667 0.35229556934778416544 -0.33322330584310472235 -0.10785248289076125594 -0.64792614937859904778;-1.4731740563375659292 0.057131036568247361984 1.4293206073313853288 0.12761955528440183105 -0.19106369529706490606 1.3186618855333054334;-1.3401068318082072217 -0.31196948868211743511 1.2274258334081011856 0.33760801006422874737 -0.27766105990412687232 1.4579396541371558715;-1.4115606972696161936 -0.38846563466462713521 0.77028289427088614261 0.3722650649847622506 -0.32922936756846893358 1.6158327087932462529;-1.316473864782831793 -0.738200835264658628 0.82872904782784062583 0.13902140791276085263 -0.23437430327150324261 1.488601582998944961;-0.39798221399498595607 -1.5369558223668204899 0.71377131242008606815 0.046040734571423498622 -0.30580253965921566639 1.1009406095799465497;-0.85489328993460078632 -0.39578910247235982167 1.0462727441090344804 0.46949550936508960275 -0.3942935507473507295 1.0824628686069679429;-1.0352848867569219848 -1.2803250294050116942 -0.018036256614077726679 0.30391689839438468246 -0.37949178124314725258 1.1216840251740027856;-0.39482698935858162592 -2.0935648617875073363 -0.23911716559754261913 0.20558746695466459387 -0.3977652435515811602 1.2900832983452807934;-1.3649219751247176902 7.9938283523354620986e-05 0.69997738885803451048 0.63745509994253379826 -0.4631571272264535799 1.0038357656436320831;-0.71590409309037572605 -0.62836501756619289605 0.089849150981209574551 0.37434268230818362744 -0.44539623474348211118 0.39649577314757733504;-0.79518063316419818065 -0.54578389839116270288 -0.28487292106305078798 0.28091413195414927095 -0.3511719446504748543 0.040436017138563089268;0.1116760708155916243 -0.1993144446938993064 -0.030750799352827009464 0.36393782978297689601 -0.15307747291281711965 -0.90501903792412452532;0.52750309310933574114 -0.27740122650261211934 0.13316918769568458769 0.32775882535250988603 -0.11219774193426527986 -1.1165545559303777789;1.4457714628977975657 0.069046577173609971489 0.61889220279657475299 0.94984118687141672055 -0.22254582829231547847 -1.115243171427706903;0.65762691664637140665 0.11818523040954839742 0.30324528364487302046 0.74911728449005110519 -0.21110993924911838904 -0.97692763713586128205;-0.074230277424615839776 -0.079409673865503696555 -0.038929505618479881557 0.47190707191712272239 -0.20661593985330958811 -0.73388791294792643516;-0.33223223272650870275 -1.0002080113692637386 -0.14354969653719329425 -0.09677789024654948058 -0.12472947587054358798 -0.44648173812926678083;-0.49702991362229514971 -1.2010637680315363607 -0.4753137651842493927 -0.059797929318152268086 -0.19294730144339744538 -0.3021354232904587267;0.12925534573660935056 -0.79384042669550936022 -0.10516878246178751333 0.32292450618151335995 -0.21564706942764461095 -0.57465954841273747533;-0.19331642403097004657 -0.50817955906057798998 -0.26932063535725547787 0.54312746355661090103 -0.25629441446313616648 -0.25971061727166927513;-1.2114273882262249771 -0.7642373146628752556 -0.9465596682497536829 0.39746872677198180623 -0.32973936017813249011 0.23046545602715914902;-0.57774827374135151459 -1.2368658897960322918 -0.50209117430096628087 -0.18849569899943116602 -0.1285011138690279886 -0.21178293807870690602;-0.95836855424123901237 -1.3088785754569149944 -0.12731466614081959898 0.024511744208560941327 -0.37296600680059754929 0.4816475511207535809;-0.75188281594304295918 -0.55390412248932585637 0.57291502540322536419 0.26269303209984268266 -0.37153946154096650911 0.43002471514758039417;-0.69129423722025173937 -0.64222059370320006 0.7766391725444163896 0.14143049509922603346 -0.22161835930675508055 0.3583397875931609855;-0.49687116296397104698 -0.97512966214919361008 0.59264276507892155177 0.34767796167449466216 -0.35286717166051362327 0.69935506823781012908;-1.1061713882695340949 -0.48469110206121068796 0.44663916290378158358 0.11555746587936623071 -0.3390486031838025327 0.34963684060396543751;-1.8594166578607986828 -1.0546874140472772829 -0.96361776282326105925 0.57590352785605658514 -0.59394500509442427205 1.9630651638868095166;-2.0484710623510689054 0.0053590476785437884608 -0.81685782619188485043 1.1539284505561191452 -0.64769708664378577989 2.0754212439655743694;-1.1256868230203542769 -0.78786635931114123998 -1.0435328135921715376 0.987349564923985068 -0.63731068552517922132 1.153284880271453261;-1.7273964320457295685 0.032625200157925582367 -0.94560375352884296074 1.3029781689790815857 -0.67169811931916301173 1.4075034390515981375;-1.3913058710977013188 0.30527387615755940953 -0.94650833264330291872 1.5941490999547276441 -0.71051629874642074913 1.3647215195048476577;-1.7010600002099198758 0.2927072653585815476 -1.0797389756712090225 1.4765439497410730585 -0.71087957891778374986 1.38709189074981043;-1.781874697633905269 -0.10406675098315119887 -1.1590475020779045234 1.1839524060593829002 -0.69546716262381702567 1.3419657124921104963;0.56416123286609098919 -0.030354653671595992898 0.089987251622223152214 0.88858484812050486656 -0.24769495192942761475 -0.6490613344113689287;1.5836037364111705816 0.80709020556588284556 0.68527828272593349634 1.9669699004804974685 -0.39914711731431790076 -0.41228878075043351448;2.3459631526082289632 0.95994203756191054389 1.0810992922279194506 2.3419014824173856049 -0.44819063686410792746 -0.40583537823495474672;1.3650816079406689063 0.86373381839943697003 0.52927751260258459887 2.0571087433194636951 -0.45522800540764207788 -0.23890584409706086544;0.77769561922522345565 0.83064124762285462822 0.27406694897202410477 1.904401396474455721 -0.4621074444575289375 -0.082637491026292114737;0.80725667945594381525 1.0392419695937893387 0.3031489999591497897 2.1127844186559436856 -0.48386080585989177383 0.070941765986096694263;1.26578778453606966 0.67974719011552897641 0.53389379030519057423 1.9435096355689089886 -0.45437706037417663341 -0.17395654187445655503;0.75851573804160987713 0.1646654624860996452 0.23655096294742711249 1.3663852191606060682 -0.36377082080609091097 -0.30456056886451499111;1.2734063946805631584 0.58060477133293475482 0.44414687928717605514 1.8324893200340277577 -0.43513829496095751681 -0.30862125451803040788;1.0525624040689913752 0.28878377060043602942 0.33925324948736185204 1.5131355025027721783 -0.38716593512366481722 -0.38469748773818285281;1.0652649296765928089 0.3023704428324925364 0.4451935442040433899 1.4753947443838950626 -0.36731349337706803437 -0.41230890198953024095;1.0133523450574308811 -0.33876643390636762554 0.36336019668922731052 1.1017070106485100656 -0.32787000207223970794 -0.36854494416023286796;1.4871022470992774078 0.14980900246726985836 0.63946022255386192334 1.7210233190037682593 -0.41787554689743722225 -0.15222482541965182135;1.0943962487504099723 0.3016034931796218177 0.38458249972641123104 1.8712892229551902901 -0.46062316109925138807 0.11577721856424630364;0.98376980794789681273 0.26009151740959268739 0.27248519525558800858 1.8810068989193879929 -0.4786452734144790444 0.20308268001714349649;-1.1021002977221363572 0.2484889571984053025 -0.93313482337262965149 1.5686824796612448552 -0.55121528280631093555 0.87756914341309566474;-2.1469859332463312462 0.069056909249274808782 -1.5157185694589374592 1.2642063155668974428 -0.58283922283671396603 1.0776782889275686728;-1.022653863157669818 0.71043633904448244554 -0.97811826523475475792 2.1264595878030085885 -0.69762790803488250457 1.1458422855799677009;-0.37526242062950232459 1.2313981349469365068 -0.61907331239990359695 2.7465306268919280619 -0.7229279059502237148 1.2149123612278720508;-1.6191554105175844924 0.60301439369511866673 -1.2324120287110238436 1.8421292612083994822 -0.66645330697678162313 1.1613643463974263614;-1.7031305199505251124 0.67977942414378367264 -1.2731822893150923637 1.9115861618768430485 -0.69409981042773327697 1.2646559893144868614;-0.49519584056936560845 0.99078776335745677439 -0.6393934852652763956 2.5377770069094522931 -0.6883781145337566354 1.4085844826099560567;-1.4689867552555329056 0.47773574335669849455 -1.2393935342406898759 1.8508225966927780437 -0.63629066488045038508 1.2456070464439761292;-3.1417980442941648711 -0.076695250213736756995 -2.1342589396859090733 1.1528687568055839829 -0.67383616882294405936 1.6714038830488033849;-2.8536506970325392629 -0.24862763167981469237 -1.9364531742202506504 0.87330389374710759576 -0.56156037343268638828 1.3033248968618627028;-1.4527022836391485505 -0.48392889187302495779 -1.159861661572113789 0.74862846522164538943 -0.43369303954102966792 0.54854225643533027768;-2.4332133823997952327 -0.44980619008934791259 -1.5037708259393169907 0.39220443348372907577 -0.40082140982315866973 0.7467570260732455667;-1.470334928861978474 -0.9378233382514719052 -1.1624732408291427177 0.2262536712378520054 -0.31522681274901659387 0.26287411880453898094;-1.5276976381380407144 -0.88895515978978068006 -0.84387006288373667129 0.059163479352281403423 -0.25579656923663607326 0.44419285926440588153;-0.18374400058005352365 -1.9424309378310111729 0.43933838834378963201 -0.11067750116848136532 -0.26090906058143475965 0.77138666889207274657;-0.61960625773708732922 -0.35873916577656245197 -0.48237320445792042367 0.38658507579586992575 -0.26937490525010843179 -0.072100523787885131832;0.018531455518953816181 0.3286110130109827776 -0.25217503150229148012 1.3538489379915239486 -0.39511611541893854049 0.0012482173428674293598;3.7837773977914497259 2.0583800864414407705 1.8889295722726389126 3.905298887423943377 -0.46846068328257195468 0.46927884182586454553;-1.0085889001477283955 0.39633529425083013908 -0.77734836184371702839 1.3175007061098897854 -0.49074335088949333494 0.38423429148615895201;-1.5129004449468916871 0.16445698810528394662 -1.0156572248672510739 1.0594481296203077658 -0.48099820725699343749 0.50674101758800838002;-0.65953948997675837518 -0.0073175717492877804041 -0.62117879922491292533 1.1308905365873920257 -0.45446391151790493934 0.20059033433999073903;-2.4507824543075003021 -0.30647907956466191592 -1.7177687762466264942 0.73812204315252250009 -0.4879608073121019518 0.88255616599243313924;-1.2958746734961432701 0.041612737101112691473 -1.0937243541584729112 1.2817758418023288414 -0.51986657923919199487 0.672350797831181346;-0.81768114080623932605 0.34306701892681229493 -0.81196459403655563136 1.694546137602780167 -0.55811394478555487186 0.80857453132434686793;-1.6309707472964976027 0.4014271611936796047 -1.2445335209626910977 1.6016518499396741326 -0.59117265280736741584 1.1021074599771607527;-3.7344517052486820852 0.43247395372563429694 -2.4810105544557927715 1.4891600960046984525 -0.77580268848317146535 2.1105309005137029565;-2.0910272709181372264 0.35108712071556896772 -1.6492821590986150859 1.6360803798208953808 -0.65842764048965030099 1.3553318045434958883;-2.2974152115805410723 0.11900980152557245895 -1.6148836566782249768 1.1583003819598700623 -0.55344906264968096732 1.0678658663229354531;-2.1265354009421360004 -0.58562784099460940546 -1.6098179939281709316 0.62742942420365399592 -0.44851894689728188936 0.83710777119600043861;-2.1522800877381151885 -0.57045336175541427881 -1.225869057377789284 0.3087591383391583566 -0.35951341349410725901 0.82819273771702561771;-1.772315168705195898 -0.16611424475065655892 -1.2874807266510168713 0.93344462780197079432 -0.46754115775578847236 0.75556669407059473542;-1.5278488311430729052 0.95589824442592563614 -1.138394106611885892 2.2333756504228334805 -0.73696690751590032686 1.4599268930801354571;0.48876059620062700661 1.8120121446845907087 -0.14357819047557945913 3.5329180071678214503 -0.79732022525009060843 1.5126030409282811284;1.8137219218525435505 2.5146489458386738214 0.63710594637998985146 4.6327543581491674729 -0.73245220859630966181 2.3869913520455496858;2.3606647250146619577 2.4519732422629623159 0.91871855862833884387 4.7211084408247137034 -0.74263605287231171381 2.2491894986365825737;-1.1428324821686972612 1.099673547400943141 -1.1722848293201055814 2.7748955814372755491 -0.8100466500957334004 1.7925700673378108796;-0.93769610850046836159 1.1406342336043475694 -0.8647535070286155312 2.4318666868019378491 -0.67943324672943516962 1.3194596604334170031;-1.461580559064003193 0.26871180860828125514 -1.2090586001816638895 1.5134641586127690616 -0.58271631647818755706 0.9229390865208411121;-1.5278875489314218683 -0.21764102240433458313 -1.2727834642842610346 1.0732539423194495942 -0.51539496218187375032 0.75136228618472622465;-0.34720054039210279662 -1.3028177607413604644 0.85712197561214242825 -0.27385977264050642699 -0.31911930414991479532 0.44495744917316298883;-0.50519817474392769707 -0.50300072593543954103 0.92801348323559174069 -0.26692569813337491125 -0.50722005732874775319 0.19675095491423150174;-1.0821012437479653467 -1.0239724597731822975 -0.42047985046298153033 -0.40754915942834041287 -0.15006197897319398238 -0.32580779744158050448;-1.405029061834763171 -1.2885645902683853237 -0.31167118899221551986 -0.17918279165983089229 -0.28563113153766722663 0.51035365196372362018;-1.3030737195492259062 -1.201708717668144466 0.32756870573638174893 -0.054919542387392779326 -0.33040077013198487776 1.089203229093348213;0.12588256127064179068 -0.16633848376515025791 0.29351547509630987465 -0.098814265474604590089 -0.045599173951806439009 -0.9766813719603599786;0.010766292855007885895 -0.28035186156816543912 0.3979567207967263931 -0.37903803854126549844 0.020165253778968241644 -1.2263774684450823305;-1.9512417842499407694 -0.70324276837976262833 -0.72482108588817661943 0.53316886314947109504 -0.4993583698529616699 1.6184542884862744838;-1.6662956025294248796 -0.89054294441601911103 -0.212979727808794983 0.10332659028298822601 -0.34361728595383922436 1.1195290757285458749;-1.8463341873252301362 -1.2178977090568701147 -0.36528049557015940252 -0.16358089929436062104 -0.28904824959941427531 1.075377801346898865;-0.16258969680027787752 0.39908486784249441737 -0.2390356545100014718 1.312358109207024448 -0.39802813368354761359 0.039010168490602493974;-0.01725756884381110523 0.18034725907606141693 -0.79857208677270230535 0.04198906015651662077 0.045422512955601519746 -0.63876652107728637553;0.73166324113317848798 0.091649878495328934713 -0.032539034132749944384 -0.10777478114224371686 0.39716239972380179557 -0.13758931349646108533;-0.84994739367635385729 -1.1937794749032821784 0.881738333857093326 -0.84534558521544800325 -0.4847808746514499223 0.3903055205122532012;-2.7676805749189261618 -0.17268527669726912999 -1.6162934735286536014 1.0153233382195576695 -0.67961196329503836822 1.8782245197381983726;-1.0258791320461924101 -0.6014985575675642071 1.124153260155906775 -0.27781968652631477967 -0.40156282092286210705 0.80812766241635314302;-1.3444087734663894285 -1.1532783749514310401 0.85584088336432306843 -0.20460301605795458424 -0.075871896113932621453 1.6681209882474561379;1.9656173736398776519 2.5074923846503227587 0.27440984470479867774 5.1330661414968066225 -0.64815367480058960759 3.3578691754228593425;-2.6652426220701816995 1.1560857360843397323 -1.9483517634392610862 2.6061637607064533917 -0.86887516882373638794 2.6127789926299391787;-3.1962644237743287334 -0.15302588189771923477 -1.7600075056343063018 0.84513063767224527734 -0.67182137207393888279 1.9012486759495665911];

% Output 1
y1_step1.ymin = -1;
y1_step1.gain = [0.0096506761812768;0.0096506761812768;0.0930128258805463;0.0204722972981416;0.0204722972981416;0.0238816238746273;0.0520077865661894;0.0346136152731732;0.031231369760718;0.0300896039903987;0.0343758081089686;0.0216244254114715;0.015089150919829;0.0122219176191728;0.0101415705120096;0.00852794423888316;0.0078578114533513;0.00996283471653253;0.00869522789067054;0.00737526769542776;0.00700360593105588;0.00849249389224585;0.00605694439587094;0.00422597923572428;0.00225474387811199;0.00223721084913444;0.00215476921881133;0.00217576449474114;0.00229762447800265;0.00244089491186859;0.00246527433738041;0.00224871356743296;0.00216525248173432;0.00231847733321899;0.00272662342495539;0.00743792777398283;0.00826512752376314;0.00822836293576755;0.00766891100931234;0.007761191537594;0.00451509103176127;0.00408431133912108;0.00403310151328078;0.0037994974315882;0.00327677820942491;0.00311614778022733;0.00325535081898876;0.00215947350707315;0.00216207128646211;0.00216237468704447;0.00216264769906013;0.00216372193452641;0.00216416493435945;0.00216510905742465;0.00216561023113369;0.00216328132966013;0.0021645356216322;0.00216542118162292;0.00216627667560357;0.00216669149554413;0.00216675174072297;0.00216703632090562;0.00216760728285089;0.00230674515288206;0.00216741430046965;0.00217268935186949;0.00218713602520333;0.00218343782979287;0.00216662158381704;0.00216601985621761;0.00244217397754367;0.0023646679011992;0.00220970481747749;0.00240578954781795;0.00240228748089535;0.00267744037909052;0.00723399872329349;0.00248143646152371;0.00244052695809221;0.00216113052293812;0.00242911456298214;0.00240752840480157;0.00225230728666566;0.00238723461839889;0.00216344757995498;0.00216409039766449;0.00216430237261846;0.00246294218316885;0.00224851459117372;0.00226009368960157;0.00239521605882431;0.00249404659402386;0.0022529199679883;0.00239095770267549;0.00216779284214888;0.00216819411160086;0.00216819411160086;0.00236906219355798;0.00216593445417533;0.00222059332629978;0.00234500222652837;0.014378430073157;0.0232495107868137;0.00310787399528546;0.00466758128307455;0.00627061903393993;0.00411429059311803;0.00413824305579344;0.00383509523528215;0.00412157385054591;0.00419118910825475;0.00244052695809221;0.0300896039903987;0.0352647628415642;0.0191662242090854;0.00299017593792611;0.014803296588619;0.0104648804704853;0.00216843085492875;0.0025038641482537;0.00294867458796012];
y1_step1.xoffset = [156.46061706543;156.46061706543;339.682067871094;260.013946533203;260.013946533203;270.963775634766;316.046478271484;293.670989990234;318.863159179688;316.746917724609;308.204010009766;256.112640380859;214.746368408203;180.099670410156;145.710464477539;107.48070526123;86.9419021606445;142.369979858398;112.592811584473;70.6584854125977;55.6536140441895;107.478874206543;12.0724439620972;-131.855651855469;-546.724365234375;-552.452392578125;-587.927124023438;-579.302734375;-530.931762695312;-482.091888427734;-474.457794189453;-553.103149414062;-587.881042480469;-527.247680664062;-394.430908203125;73.6460189819336;101.17830657959;100.086723327637;81.449089050293;85.1504135131836;-104.187469482422;-151.571792602539;-157.464691162109;-188.55712890625;-272.9169921875;-304.9541015625;-277.835479736328;-587.880554199219;-587.928161621094;-587.982421875;-587.98388671875;-587.889282226562;-587.934814453125;-587.966003417969;-587.947875976562;-587.956237792969;-587.854736328125;-587.822082519531;-587.952697753906;-587.958557128906;-587.946228027344;-587.920043945312;-587.884704589844;-532.182067871094;-587.963439941406;-585.798645019531;-579.629821777344;-581.063049316406;-587.950012207031;-587.860961914062;-482.887420654297;-509.549377441406;-568.62646484375;-494.404724121094;-495.280731201172;-409.304656982422;63.2292137145996;-466.604522705078;-480.912322998047;-587.970092773438;-485.417236328125;-493.036529541016;-550.611145019531;-500.653747558594;-587.948120117188;-587.825439453125;-587.923706054688;-475.792022705078;-553.520446777344;-548.644653320312;-498.295196533203;-466.035552978516;-552.376403808594;-501.415557861328;-587.919372558594;-587.99267578125;-587.99267578125;-509.066284179688;-587.892150878906;-564.760681152344;-516.690979003906;203.679336547852;258.684692382812;-304.5869140625;-89.5956344604492;20.9043960571289;-140.656036376953;-137.89826965332;-184.640853881836;-147.9326171875;-139.886123657227;-480.912322998047;316.746917724609;331.007751464844;239.706741333008;-333.140655517578;207.724334716797;150.555236816406;-587.997314453125;-462.376556396484;-341.325744628906];

% ===== SIMULATION ========

% Dimensions
Q = size(x1,2); % samples

% Input 1
xp1 = mapminmax_apply(x1,x1_step1);

% Layer 1
a1 = tansig_apply(repmat(b1,1,Q) + IW1_1*xp1);

% Layer 2
a2 = repmat(b2,1,Q) + LW2_1*a1;

% Output 1
y1 = mapminmax_reverse(a2,y1_step1);
end

% ===== MODULE FUNCTIONS ========

% Map Minimum and Maximum Input Processing Function
function y = mapminmax_apply(x,settings)
  y = bsxfun(@minus,x,settings.xoffset);
  y = bsxfun(@times,y,settings.gain);
  y = bsxfun(@plus,y,settings.ymin);
end

% Sigmoid Symmetric Transfer Function
function a = tansig_apply(n,~)
  a = 2 ./ (1 + exp(-2*n)) - 1;
end

% Map Minimum and Maximum Output Reverse-Processing Function
function x = mapminmax_reverse(y,settings)
  x = bsxfun(@minus,y,settings.ymin);
  x = bsxfun(@rdivide,x,settings.gain);
  x = bsxfun(@plus,x,settings.xoffset);
end
