function [y1] = myNeuralNetworkFunction_43433(x1)
%MYNEURALNETWORKFUNCTION_43433 neural network simulation function.
%
% Generated by Neural Network Toolbox function genFunction, 09-Nov-2017 17:56:47.
% 
% [y1] = myNeuralNetworkFunction_43433(x1) takes these arguments:
%   x = 3xQ matrix, input #1
% and returns:
%   y = 121xQ matrix, output #1
% where Q is the number of samples.

%#ok<*RPMT0>

% ===== NEURAL NETWORK CONSTANTS =====

% Input 1
x1_step1.xoffset = [-3.52043899095477;-12.2057048736391;3.65000009536743];
x1_step1.gain = [0.254139606760863;1.24587250852296;0.000182706957739474];
x1_step1.ymin = -1;

% Layer 1
b1 = [-4.2200769751259379348;-2.8607738641843485361;0.86779310074431592614;2.8928781335791247109;-1.3111188232130686071;-0.80616190722449221351];
IW1_1 = [0.39880845953840021734 -0.024617592260828196488 0.40421507578515791792;-1.9145930203408194625 -0.31498692758612167886 0.58937142023379418543;2.0695382676920366372 0.098983709704779307414 -0.13247130859483899346;0.52746791537705361996 0.12861140337726228999 2.2799242070678640282;-1.9840444795525629118 0.14117752062842361949 -0.27922617959148893219;-1.1325173845977181131 -0.12112290059871524961 0.1035886622060683826];

% Layer 2
b2 = [1.5341971081342711258;1.7000634016039153362;0.92402081283189729799;-1.1207969792305669809;-0.21904036665995735289;-2.1835365935119157577];
LW2_1 = [-0.74294344245082588607 0.037826267983465007572 -0.15900369334517319708 0.17528101413096724981 -1.2169128423446318177 -0.89766957360500088114;-1.5474379129381810039 0.30161236588586093355 -0.2653993543798757182 0.22661266059381390825 0.60438557825030292392 0.85799006295144097933;-1.5348257551992707803 1.8041773088539323489 0.1992041222028993197 -0.8422020925588212803 0.41268835818179205877 -1.8952803190339975181;1.9340008626748224074 -0.83915711412791360591 -1.8591668617419254694 0.5357120369628983747 -0.197487206354200584 0.57913089547719731609;1.7092628141626142746 -0.65710659061001308601 0.49289106265426241293 1.3654069488120494924 -0.61940762638972279852 3.1245439431178438916;-0.61270055110239252105 -0.55729062894171532694 1.248758993117514482 1.1376521736105214 -1.1085865170204396435 4.2385794202013711285];

% Layer 3
b3 = [-0.28284184181909943767;-0.026181162359516164245;0.79335286250144476661;-0.29215318673132689709;0.35171559244382238907;-0.27941332514080796656;-0.049295013837083644093;-0.34950003578574312391;0.498932072206768773;-0.076127370629320012529;-0.12809944217294907953;0.28438138380629451873;-0.99047045577317693876;0.33546749055814839569;-0.054721369338899990276;-0.026064243076790415132;-0.595106803998283862;-0.11379675240127866409;-0.32546048353698420197;-0.3765222216176570269;-0.030263272004570782037;0.6139601969867175546;0.30289002218598692906;0.34028785755686435932;-0.64288593731845067314;0.3386362797651912282;-1.1842143802071054548;-1.1331717585487839361;-0.97017451612598237798;-0.76900830309065781876;-0.38501231114966427693;-1.0974275395164021507;-0.13168094060938001499;0.18098718258232263101;-0.80219764178633023999;-0.29717810148278700488;0.75393454645054025498;0.1627936301432707511;0.36109637900243513053;-0.44488775158166238288;-0.68530731927074839405;-0.86283815457261381354;0.46561581947249147673;0.74961254509648689304;0.44400430010011704418;-0.34414628752163400893;-0.40100878818597157638;0.21781394951310134589;0.7508024771689675303;-0.63049925232140957565;-0.70004541859354640909;-0.58803287817049032515;-0.97237784253842241;0.12090962648768607823;-0.54374406367170580179;0.68744425146520860004;-0.35158505995564165447;-0.011160635069901008939;-0.68911531977724960196;-0.37748229763756102617;-0.89738841401572755352;-0.21334922194000835449;0.21244480913599897431;-0.076137824542543461326;-0.24156239417465233399;-0.88450148292481400869;-0.25032444502496192795;0.20369949525335545593;-0.064256257613615017088;-0.22521179913418173935;-0.5571165409779909039;0.18377369459896722437;-0.38778423232603514981;-0.4004108298654146525;-0.23628737255232082348;0.00343882531849609447;-0.5089372378113511397;0.064865745345565342661;-0.36629398965941856181;-1.0141570020321917234;-0.64222122520765712039;-0.4155352106136689927;-0.27199062973396187504;0.48256603967864292182;0.57276806098193089323;0.14497206964981212973;-0.65281649871128466511;0.71005416065890492039;0.24330343174558147212;0.42060105699617728048;0.54813494693103315125;-0.32322879020322770049;0.40291975465709778392;-0.30689025617801696244;-0.43382237407351098568;-0.34402299188842194733;0.43728897266884969586;0.028792759637305945231;-0.78372337852305540284;-0.29100622013939331234;0.013486823508042374009;0.3864895324654452069;0.04741597301960467914;-0.54010183656207055858;0.29183018959854539753;0.1908715780738035328;0.025537856180190283972;-0.99957009889627312926;0.47529373725878037993;0.86000574911746374696;0.034541522213885338111;-0.25388027798744700059;-0.035972571290372089281;0.54437390577794719793;0.25645536075735358983;-0.064012715071370712705;-0.55816380082335959045;0.34223473777074697733;0.0073519643823286278533;0.48258758730710005214;-0.086230007886995085897];
LW3_2 = [-0.47225429009054131768 0.37549611474335248262 0.041885861065903237654 -0.71457779604491478143 -0.065702591030963750085 -0.62728791482049262029;0.22376006349976601539 -0.067785525626012768652 0.55721486105128026356 -0.38246284793114304623 0.27061895045951267491 -0.28334319197646457011;-0.2827683598298401102 0.1155922650352562836 0.46300924610492855127 0.13971588513827717937 -0.14221510977183010604 0.27295325103559886504;0.34067467644831811446 0.6372346562758604005 0.37389305437720443681 0.51962554490061940715 -0.34039759068546421306 -0.25399795480386011537;-0.31564880131860240109 -0.12081738575436090644 0.008247392174897314604 -0.36666266195508789849 0.27570058087408322312 -0.97217868709014731987;0.75628385089848659817 -0.042814201145170392715 0.11784695614778731287 0.24565981187009761078 -0.68677130504236849617 0.053804265261517839058;-0.23090591889075495757 -0.12884356254138248921 0.047846170981351528184 -0.5073844818880978158 -0.23326923607307298303 -0.57105808884471687126;0.10836889401276664224 0.52687928503121794765 -0.37803976915738668474 0.046670385048504459125 0.15687316507386153686 -1.2621290003426302029;-0.55178429200827605605 0.39054159151712775078 0.16752758076986787317 0.44411619207113600671 0.12132272428372180284 -0.43331159881284264657;-0.65947254811519406825 0.39651468906218190202 0.1169979737964976646 -0.73917063539150662521 0.15102518032704836948 0.19708282792455200649;0.71174008733312321695 -0.25435400096031463013 -0.057057109203020012211 0.14284852807875486613 0.40199421706868182502 -0.84468902972704573706;0.22986472861042961391 -0.20694678225802837224 0.18825987709917382795 -0.0017914441997867202629 0.11246423156391145703 -0.47047566239500199226;0.0051501167792498284484 0.83086730528628993664 -0.27535184365449255628 -0.041292268754344940707 -0.50453167320969116716 -0.77434681420989870393;-0.022755740974486144551 -0.22903372462559953848 -0.45122464923853650154 0.55752077262096799704 -0.41449103598416220384 -1.3677673120215609881;0.078015132785208954336 0.223325965840463464 -0.27240981035791367315 0.85396189514165454781 -0.50874427980956693496 -1.309969421004312462;-0.22102188080459905795 0.47724496261524979035 -0.16724281491394077381 0.8988897437361796916 -0.2986162887459909987 -1.5403025787285504755;-0.19560764183781251258 0.76156879674482547138 -0.20463810243941096823 0.59039961677850549826 -0.025786492691186945619 -1.8376421804440483676;0.63262053738401125003 -0.15909723898438940526 0.038000049717690109752 0.99282221881385734896 -0.12234440709914633227 -1.4452304949725309768;0.25913910368814002672 0.031687598844383983721 0.0032148101433898935118 0.63418431609773617819 -0.034913597231895091011 -1.6463196386899572321;-0.2758141387118870913 0.19884118060362851454 0.026583597754649756356 0.20860067752640573668 -0.016593820400694861417 -1.6717475554027483309;-0.40962478632701476711 0.45292376682400314891 0.095229662655681890371 0.68319527404658386693 0.011218899427845735461 -1.6669822590023539721;-0.48829682620163783469 -0.42724113680725261943 -0.20024224567860279822 0.46778559062374430733 -0.75482841682056445176 -1.1548172489327404033;-0.78529927741364213833 0.34901431267438198791 0.42544685462103770668 0.39780151450846495953 0.042665144257231488178 -1.2384589257927860473;-0.272398460395519737 -0.501138365315798473 0.15725094849717971557 -0.13959833737872778814 -0.44706456317035930814 -0.67866351448138095837;0.083750805146380183364 -0.29059782720397275835 0.20809017382425742948 -1.0319307520115090782 -0.44686236307959220637 -0.12534476135871580604;-0.67348166091283878654 -0.61815599205057769616 0.18394177664523286841 -1.2714674754629260445 -0.33493598911268229745 -0.095895965026079790783;0.39414277509531286947 -0.43270902300094704618 0.48305984836067250576 -1.5199112453107583853 0.09310288686933050617 -0.29446824957781214671;0.51283427478321341741 -0.48766463187078962216 0.36442135129235903035 -1.2773364498713870585 -0.18798896278183538366 -0.25035237272294286193;-0.11221573996497034853 0.043731066214679495396 0.37164568640918360654 -1.1677784316094874661 -0.063420369112179436621 -0.45287100978683519914;0.098472340567512472997 0.074793046089273049204 0.12012025290454175774 -0.61265375927601184447 -0.17245252720452952655 -0.70129982025784265431;0.049827675725262407513 -0.50410328527583869729 0.19746139576268315063 -0.80806426567710165632 0.1796062860958363705 -1.0147158147421333485;0.4474865728360750694 -0.51589674161955778597 0.34475311064336405797 -1.1263111421111711152 0.21008120515980335807 -0.90772336016928456548;0.15819716453390822442 -0.8552636219276934515 0.15030688249126231137 -0.61263905855721600968 -0.52803321254258361872 -0.48945158553438156135;-0.12812974134146079552 -0.77152397404912265166 0.26533032384117166691 -0.2870619000456053338 -0.3955819701064298699 -0.768007670512437568;0.43214638208829669885 0.015640870499409900013 0.059091787980002460912 -0.1795182364018956811 -0.50207861505920203804 -0.62187405764194736424;-0.015761432379546382737 0.12878935998468704627 -0.21519966164224080263 0.51947082435132596601 -0.93000780896400325748 -0.9423453490777707886;-0.55502780717777733255 0.00049864972513943752602 0.12393009030567365969 0.85095419079852374633 -0.66215296591632455403 -0.8560357108576828189;-0.41373557060462212709 0.58081667993383923054 0.15647185608113556299 1.0018295253909970111 -0.77259694317370386507 -0.76901791191515744828;-0.54065056177036230345 0.42270273969205929276 -0.071560125048142020354 0.96642062889712443408 -0.99574926308474798198 -0.81219045784711507707;-0.5664269055438085898 0.3354169192198359073 -0.40037385026204175276 -0.034434525635081612849 -0.97320899182550546502 -1.0159254114873903507;0.70442083570183100516 0.40740461530222682462 0.27472889774597747392 1.1091419998732383601 -0.26485717956995491473 -1.2619169975676836071;0.83591908371424716861 0.40011048442049990115 0.35816278595360273584 1.1503834941460671093 -0.54896681871557762022 -1.0017885890566400331;-0.29269023292814616566 -0.17928937028151659128 0.23954444817886841324 0.69530295112839468619 -1.0249560329020441785 -0.47615395547831745882;-0.63812708041699883754 -0.31175134205341026306 0.40024943374013544073 0.44611560240129999322 -0.63558729535029945268 -0.66339546523965042812;-0.32173107459639765926 -0.31108226286750784162 0.41960001915640299242 0.52564393311248314156 -0.94846332708889080632 -0.38880846725867024283;-0.37602109673884981378 0.5474964836488335207 0.50296228584503788195 0.59773301779229492947 -0.98376003801475098154 -0.38919669861919758969;0.76369983684255815515 -0.5310207558579007614 0.31876100853065275631 0.55972543377889016902 -0.72456375721506016685 -0.71879374670747475662;-0.84401503286191226216 -0.48510051993734437659 0.3815987984183599746 -1.1274702994296836867 -0.3851646444505362199 -0.18743892165768669122;-1.1121535593580920143 -1.0030794717998219312 0.81192176025233264713 -1.3118358607822051543 -0.10869132643275264405 -0.098203795730004844744;-0.63421058110433148336 0.10503506500057432915 1.0599830319382765875 -1.0437964539718371793 -0.11141918933265922143 0.0011439451364277397095;0.026350986142935794998 -0.33441218808419442832 0.82965821982658227718 -0.7656174740556496161 -0.48372223752127119223 0.054742336278084252621;0.016291668375960109 -0.50124393564526670275 0.77857702802545480925 -0.77786336100520347969 -0.3699028847044086854 -0.16392334383658210828;0.052706627004080908172 -0.32006972610225464804 1.0169346228799627241 -1.0001974393493244797 0.10462900001808829453 -0.38421553928337109918;-0.37145057896789640539 -1.0058065444946584499 0.7565931478584769776 -1.0081767757383988116 -0.16867445266649186419 -0.30564152284834589235;-0.1828971639312239883 -0.5123875229714252022 0.60762490111857425656 -1.0490417929004249853 -0.15082494012996083832 -0.43607723529595054934;-0.69650532204160797711 -1.1151417578590523405 0.61700880279654535254 -0.88245658975138430158 -0.54198957435547101547 -0.035891247478887493283;0.32180593083284420031 -1.1032648770259432247 0.53008657327525998681 -0.93813490945050415082 -0.3937473324315645673 -0.22652296300289168074;-0.81496571720477239964 -0.61050334373280279454 0.70222482067534353067 -1.3565102123069843199 0.15329552592135484157 -0.53697086384461545361;0.50557745517499630417 -1.0839190190204048836 0.40157505798803999619 -1.0687006643326368849 0.026073144046946078456 -0.79431050703403027757;-0.60791772111488040498 -0.20983806452640080265 0.76302416712204801374 -0.9001688212349605589 -0.056226944201296223669 -0.51349068872987324585;-0.39050244922039573092 -0.085828445004710526844 1.0137482095863743492 -1.0464230546086648044 0.43838544991460892675 -0.83987291976171585262;-0.32726636344310211513 -0.43318580170477088975 0.73786072888503251299 -0.46167787116265429637 -0.48202286323924936617 -0.31389035664809294968;0.078668421453856718362 -0.96676632462285350122 0.57917573368405295131 0.11405207786629004141 -0.81684940074336798155 -0.39617554340314764527;-0.56945175620702481734 0.033343905905126938749 0.67536580430051418311 0.33432997009246523401 -0.95301835169270143755 -0.39435179399422415347;0.14802909151867402193 -0.52102612845581175449 1.0356386876342822401 0.27981464266862876578 -0.62185701468947141013 -0.30084762880388343786;-0.019086933739555514422 0.18255457377526498886 1.6547813212386761617 0.11042977331062778235 0.060755800152734816544 -0.38550746664387380847;-0.43207308963232965437 -0.21506780369372929806 1.0902600012701424426 -0.04896543722207107735 -0.21882544830845335193 -0.6442502587125651381;-0.62872011489062129552 -0.046829915986424490437 0.90409619095682225431 0.53504262705903815611 -1.0061813629092246636 -0.17848844225485607784;-0.39056390733167045681 -0.31559533738722606033 1.2786437072298377782 0.037086656053403832534 -0.051433755029079736287 -0.5862463235892542146;-0.30200313014728769057 -0.19987763637508784709 1.0117098448085457552 0.11434673739234377243 -0.32935459831017466215 -0.60229963653713169958;-0.22823942566956201272 0.27606865346770592673 0.81299405967565385733 0.52037762741628545982 -0.47377005254991411132 -0.89367242127713197863;0.30387312859863174763 -0.77440131786703292338 0.3185462039011315305 0.70902081947447703758 -1.2097842892264580872 -0.4908998607508660017;0.42779591958455104317 -0.90416203286933216621 0.4546987650821900373 -0.28073764440524257013 -0.19365582272568238054 -0.96529804173233779707;0.51118403507982268508 -0.82055698255129394525 0.32130837185205401996 -0.1853262378987484138 -0.17276006737820062686 -1.0615719788599804474;0.020369850336001343177 -0.54059518607270773405 0.27802416523154738215 -0.37696142943029453676 -0.21879075956849552975 -0.90811069172330594057;-0.6166845732964015836 0.08505850783784241198 0.26001768738443520324 -0.15605732380683159932 -0.10978768910137093329 -1.0690135379753538114;0.26192842775040742209 0.29414778185346857065 -0.089024158981690165726 0.63459907595560682836 -0.01126282696166940045 -1.7154307990704735776;0.28416359985546213451 -0.69761372490607131969 0.11733059022353208023 -0.16663739140157737828 -0.72155113575190454878 -0.3097847892283937532;0.062660029518400620074 -0.27343164736082614663 0.62905310614622544918 -0.24956277684981889586 -0.69951106952495856195 -0.016443872144685022646;0.74405770038090668361 -0.31466282235070630602 1.9296326998779271822 -0.42191544357916799246 0.58927516170826377273 0.08325247754073478168;0.44254980152492884304 -0.48445182647168000267 0.60147564881938553327 -0.12261147319314795456 -0.73616161634537502501 -0.25070163617595159211;0.051279298739381425076 -0.19050742101654616345 0.40504667082008033452 0.11621935173350515791 -1.1350484335837998096 -0.16028418306403646731;-0.27722691316643216508 -0.36653957408167731069 0.53005245711546655762 -0.38141244913387051252 -0.62234744482613657546 -0.41485548093008228765;-0.23670975164419372216 -0.81523609169893085369 0.30923099909050333345 0.22426545253840601823 -1.005742297712506117 -0.48644807294693770405;-0.81576479777307120411 -0.64688818261312275304 0.64225067473714103627 -0.21796485946106378129 -0.55400220013206047387 -0.50877468684417248568;-0.15306159881477274243 -0.84796436013368847728 0.74745721794378261471 -0.16154928847399177561 -0.45629410665398356661 -0.52226800236913539788;-0.17714450653124733104 0.20292551843461875682 0.91260032925000744708 0.15297304966093411283 -0.46719441887199869567 -0.51662803084896702366;-0.47178761448343792262 -0.41945702272413687428 0.77051986883159162556 1.0152737346729219237 -1.0008519655546133098 -0.51317246826270668247;0.31720623206161541185 -0.85658040462307616369 0.71140249118636234016 0.72336876949548745142 -1.0612772710134434906 -0.27842370995528387123;-0.6505072960876694399 -0.41690534584066490931 0.66217765384888971347 0.12420305137112323812 -0.63034155663284408 -0.53353432489521290805;-0.4036521653384327335 -0.70953827865859908641 0.41283306775697381497 0.11218963961095669568 -0.55834121135946546133 -0.73329054371317003991;-0.13992284840803553836 -0.078613682169137638622 0.45717967089064442954 -0.11848611120367236182 0.12246983069723965665 -1.1700030759983681694;-0.43455780807751748229 -0.65609596399948366674 0.57721666355526368708 -0.071041086544221282439 -0.41832245919268518097 -0.65132648086808320187;-0.42048137809811525489 0.30882664975992879519 1.2262738195369240479 0.58415479600635311641 -0.6018846980462714269 -0.30557202605491101677;-0.33007976095511015746 0.27624058723539079985 1.9252322286177969701 0.37433993730244541354 0.058509830562575478041 -0.15439086037468832679;1.2677325090985200884 -0.38022395980851247943 2.7733289895654773538 1.1844254876903976825 1.2459254872090592681 -0.29974630687226477832;-0.29321738913562273021 0.21607165275401277182 2.9472744926590506154 0.91699397928589809759 1.5149391569738035468 -0.35580530193341813883;-0.086933441647130085816 -0.25716871881657449306 1.5732081529851973389 0.76799782818916972893 -0.36551517821965251454 -0.26444154714329370925;0.57810813014237516505 -0.40554973220816747936 1.3076727349095644826 0.15717745201124067034 -0.1097767814216910609 -0.44717891886941751878;0.31672668252326591221 -0.5188575233981305157 0.72449722193923060676 0.34268864982681002118 -0.90495569670537767681 -0.24417669567906352679;-0.86431132656714293461 -0.074503713680823591137 0.8434441160115958569 -0.31616812374839720068 0.057716305301859407995 -0.92419380247357152403;-0.44129085292690373166 0.23543026623090396177 0.20867079830122542417 0.16492012650207682478 -0.30186094280117986566 -0.30144267747238806532;-0.84067675692366983231 0.60383626272042112415 -0.25976201200510634637 -0.52079696670093844624 0.36163191069288924684 -1.0134241254740274929;0.017747913785695072081 -0.31121436554204018332 0.21753774554901228466 -0.6628631802327005218 0.38731795839059623976 -1.3655368417672952841;-0.39121946940437529738 -0.24582513247240189713 -0.025116241457350325234 0.32288766540200425359 -0.32271760023587081623 -1.3782486617295375275;-0.35658350175575226348 0.38046477470246203856 -0.25545758430598380917 0.93407816438029056538 -0.5877656922701394171 -1.4035000536592310283;-0.075762102272353901156 -0.34576814201857625219 0.11926701846039573784 -0.97380412742431721185 -0.041506913787496220458 -0.23196714372844959295;0.35509343473648519174 0.25497172913807808481 0.2097361778119500586 -0.97694508999088380818 0.13256882710138512271 -0.35527019795083131237;-0.67004946848896940192 0.14877437150002495447 0.32718554885930090093 0.49359664417233328759 0.18840402318974910911 -1.5038745591162860915;-0.38036107253375217585 -0.39958943584578432429 0.023831462071672488562 0.68222615441482514775 -0.33340874166732126227 -1.2730286120816660667;0.37124491057351727274 -0.15598003532426324425 -0.094513953896395372367 0.90173639141074557468 -0.60107967571539711038 -1.1700726081318906235;-0.65123822934991626443 0.18503441553091282135 0.77566707743524831997 -0.45894673977531136311 -0.40802524607455803451 -0.13544726280746480218;0.16016618424827602785 -0.34225596902140559274 0.0099273561660519604039 -0.11599209211027010358 -0.79871795898281872095 0.45957761217820186639;0.46803652428508707439 -0.47666877077455066525 0.27920438352738480292 0.42310472736541993033 -0.16836919271036321355 0.82937576621844233404;-0.37894111797883978099 0.58721607369524742026 -0.20600072046295189732 0.24529429148106862701 -0.43858561552322461452 -0.35234849052497080324;-0.40684171757094839128 0.59103933297236987965 0.4333487231774212356 1.1730481322324239901 -1.0655999456276676884 -0.67864815145632984006;0.67407610118986138747 0.44395655138799788864 -0.47677005027820384964 0.75861235017480033171 -0.99694891628466542066 -0.49242804017667285432;-0.12924167557651364269 0.22409072881462341331 -0.25908374073968637452 0.70742937212297574145 0.018321559001815590495 -1.4732917882330887061;2.0689022687445977056 -0.28329109149884640351 3.5803844474507036111 2.267606909708694829 2.2791573053152895945 -0.38550523176282514015;-0.091746660938109236838 -0.39502742126573398007 1.5148676877828242127 1.2071098241634263815 -0.26257852904953904449 -0.57389246466107979305;-0.41541464741937778049 0.46540297296904237223 0.41402437093412741698 0.88873067541165629013 -0.64526945404819713303 -1.0002111897620233893];

% Output 1
y1_step1.ymin = -1;
y1_step1.gain = [0.0101222786896425;0.0101222786896425;0.0767051971703722;0.0221805854894783;0.0221805854894783;0.0295963781287751;0.0554895597226538;0.0375008940909884;0.0322293984084964;0.0306530040280711;0.0358536552007112;0.0257758902447994;0.0189583029287217;0.0125688039700206;0.0098772830177077;0.00819783045072588;0.00756419629144778;0.0094761312786003;0.00809861036837395;0.00674559341711767;0.00651161473608541;0.0078772925617094;0.00600122236354104;0.00420210296864251;0.00231904710999688;0.00232928777626128;0.00214708502150034;0.00222458604101452;0.00235028330281078;0.00246713371397173;0.0024673747518168;0.00230721365120186;0.00219614942649489;0.00234980818887501;0.00307744843010497;0.00717507484802124;0.00830473548661589;0.00856773983700299;0.00691989038473808;0.00795378585357605;0.00394546687613313;0.00352491336434629;0.00339554676963356;0.00315348395594785;0.00284886314989256;0.00274719297835986;0.00282915253119273;0.00221826808894965;0.00214568885514423;0.00214623716510156;0.0021465751585939;0.0021471732347727;0.00214776362015626;0.00214830327278938;0.00214849124680616;0.00214734131026156;0.00214783950012392;0.00214822855714801;0.00214995453949733;0.00215046981970685;0.00215071449494801;0.00215072049431916;0.0021511759089831;0.00231865820393217;0.00215130103882603;0.00218022767437347;0.00219363839509859;0.00217561873556436;0.00215185130266201;0.00215160128270053;0.00240897735169448;0.00235143016511463;0.00223972340290866;0.00241200094130457;0.00241914428455569;0.00287614217769289;0.00704926937618656;0.00275026055420251;0.00245807745081885;0.00214800683510354;0.00243527899376781;0.00240737310911047;0.0022710511464033;0.00238201283719406;0.00216713327578649;0.00215038754455214;0.00215067659381213;0.00243359525971767;0.00223944734419813;0.00227536128078509;0.00241718791153762;0.00258852718743503;0.00228595019972939;0.00237778072468687;0.0021517903995397;0.00215176722617124;0.00215176722617124;0.00234582238442021;0.00215079340699906;0.00223754640144968;0.00237389334555344;0.0141673651880711;0.0229018410653605;0.003814849635166;0.00484348944458196;0.00612388256733797;0.00499719886438702;0.00501972626192468;0.0034357572864165;0.00374869940105238;0.00385654359281264;0.00245807745081885;0.0306530040280711;0.0329444339158363;0.0185763586244039;0.00286479180229614;0.0143939468814689;0.0109166334072702;0.00215260899389573;0.0024759390640024;0.00275369732901527];
y1_step1.xoffset = [166.32048034668;166.32048034668;335.164398193359;267.670715332031;267.670715332031;287.557769775391;318.921295166016;299.270629882812;320.827392578125;318.650085449219;311.346527099609;273.075531005859;244.478225708008;188.773910522461;144.94482421875;102.940879821777;82.1962585449219;136.488754272461;100.300277709961;50.3327789306641;39.3251800537109;93.5762710571289;13.8081092834473;-129.360916137695;-516.440185546875;-511.963317871094;-585.536865234375;-553.280822753906;-505.425506591797;-466.423522949219;-466.6083984375;-523.159423828125;-567.277526855469;-507.971221923828;-304.629943847656;68.3982238769531;106.658409118652;114.02473449707;57.9412155151367;95.8365707397461;-161.881774902344;-222.736114501953;-244.181533813477;-289.725616455078;-358.016784667969;-384.516448974609;-363.516571044922;-556.867248535156;-587.998107910156;-587.920532226562;-587.972900390625;-587.968566894531;-587.976257324219;-587.960571289062;-587.913391113281;-587.917236328125;-587.991638183594;-587.989074707031;-587.901977539062;-587.900146484375;-587.954528808594;-587.996520996094;-587.902648925781;-520.656188964844;-587.967102050781;-575.685485839844;-570.029174804688;-577.670776367188;-587.919067382812;-587.912109375;-488.328033447266;-508.495391845703;-550.713195800781;-486.590881347656;-483.873687744141;-352.122802734375;60.9882507324219;-382.635467529297;-469.804016113281;-587.9970703125;-478.032623291016;-487.741821289062;-537.832641601562;-496.991821289062;-580.693908691406;-587.963562011719;-587.932250976562;-479.848754882812;-551.041015625;-536.540832519531;-484.538940429688;-429.228607177734;-532.244262695312;-499.088989257812;-587.984375;-587.999328613281;-587.999328613281;-510.857208251953;-587.924499511719;-551.4892578125;-499.788757324219;205.852767944336;260.895904541016;-179.489929199219;-68.1605453491211;18.6738739013672;-53.1413307189941;-51.345703125;-238.157089233398;-189.29150390625;-174.37939453125;-469.804016113281;318.650085449219;325.649627685547;240.219879150391;-355.181732177734;208.134582519531;163.174438476562;-587.999694824219;-466.002044677734;-383.828155517578];

% ===== SIMULATION ========

% Dimensions
Q = size(x1,2); % samples

% Input 1
xp1 = mapminmax_apply(x1,x1_step1);

% Layer 1
a1 = tansig_apply(repmat(b1,1,Q) + IW1_1*xp1);

% Layer 2
a2 = tansig_apply(repmat(b2,1,Q) + LW2_1*a1);

% Layer 3
a3 = repmat(b3,1,Q) + LW3_2*a2;

% Output 1
y1 = mapminmax_reverse(a3,y1_step1);
end

% ===== MODULE FUNCTIONS ========

% Map Minimum and Maximum Input Processing Function
function y = mapminmax_apply(x,settings)
  y = bsxfun(@minus,x,settings.xoffset);
  y = bsxfun(@times,y,settings.gain);
  y = bsxfun(@plus,y,settings.ymin);
end

% Sigmoid Symmetric Transfer Function
function a = tansig_apply(n,~)
  a = 2 ./ (1 + exp(-2*n)) - 1;
end

% Map Minimum and Maximum Output Reverse-Processing Function
function x = mapminmax_reverse(y,settings)
  x = bsxfun(@minus,y,settings.ymin);
  x = bsxfun(@rdivide,x,settings.gain);
  x = bsxfun(@plus,x,settings.xoffset);
end
